{"learner":{"attributes":{"best_iteration":"199","best_score":"80.94439252131151"},"feature_names":["HourOfCall_x","IncidentGroup","IncidentStationGround","PropertyCategory","IncGeo_BoroughName","DeployedFromStation_Name","IncidentLatitude","IncidentLongitude","StationLatitude","StationLongitude","DistanceToStation"],"feature_types":["int","int","int","int","int","int","float","float","float","float","float"],"gradient_booster":{"model":{"gbtree_model_param":{"num_parallel_tree":"1","num_trees":"200"},"iteration_indptr":[0,1,2,3,4,5,6,7,8,9,10,11,12,13,14,15,16,17,18,19,20,21,22,23,24,25,26,27,28,29,30,31,32,33,34,35,36,37,38,39,40,41,42,43,44,45,46,47,48,49,50,51,52,53,54,55,56,57,58,59,60,61,62,63,64,65,66,67,68,69,70,71,72,73,74,75,76,77,78,79,80,81,82,83,84,85,86,87,88,89,90,91,92,93,94,95,96,97,98,99,100,101,102,103,104,105,106,107,108,109,110,111,112,113,114,115,116,117,118,119,120,121,122,123,124,125,126,127,128,129,130,131,132,133,134,135,136,137,138,139,140,141,142,143,144,145,146,147,148,149,150,151,152,153,154,155,156,157,158,159,160,161,162,163,164,165,166,167,168,169,170,171,172,173,174,175,176,177,178,179,180,181,182,183,184,185,186,187,188,189,190,191,192,193,194,195,196,197,198,199,200],"tree_info":[0,0,0,0,0,0,0,0,0,0,0,0,0,0,0,0,0,0,0,0,0,0,0,0,0,0,0,0,0,0,0,0,0,0,0,0,0,0,0,0,0,0,0,0,0,0,0,0,0,0,0,0,0,0,0,0,0,0,0,0,0,0,0,0,0,0,0,0,0,0,0,0,0,0,0,0,0,0,0,0,0,0,0,0,0,0,0,0,0,0,0,0,0,0,0,0,0,0,0,0,0,0,0,0,0,0,0,0,0,0,0,0,0,0,0,0,0,0,0,0,0,0,0,0,0,0,0,0,0,0,0,0,0,0,0,0,0,0,0,0,0,0,0,0,0,0,0,0,0,0,0,0,0,0,0,0,0,0,0,0,0,0,0,0,0,0,0,0,0,0,0,0,0,0,0,0,0,0,0,0,0,0,0,0,0,0,0,0,0,0,0,0,0,0,0,0,0,0,0,0],"trees":[{"base_weights":[-2.7265E-2,-6.1355556E1,7.512519E1,-1.1050593E2,-3.172079E1,4.4425617E1,1.3505743E2,-1.557142E2,-9.425696E1,-5.0723175E1,-1.2697341E1,2.432171E1,6.799112E1,1.1451255E2,1.7162752E2,-2.2081258E2,-1.448034E2,-1.0663023E2,-8.245407E1,-6.1021313E1,-4.127929E1,-2.1432861E1,-2.1425767E0,1.633885E1,3.6831905E1,5.727992E1,7.933186E1,1.0615501E2,1.2938904E2,1.5445831E2,1.8878294E2,-1.8179161E2,-2.4925261E2,-1.1548397E2,-1.5133353E2,-8.165329E1,-1.12107086E2,-6.0461823E1,-8.836866E1,-4.2828686E1,-6.595896E1,-2.448348E1,-4.574865E1,-6.3757863E0,-2.5270502E1,2.7752063E0,-1.5845198E1,2.058364E1,-5.912663E-1,4.0897785E1,2.038353E1,6.1395096E1,4.069515E1,8.3548195E1,6.2106777E1,1.10583694E2,8.7530876E1,1.328631E2,1.0449782E2,1.590966E2,1.362146E2,1.9188092E2,1.70541E2,-1.5363858E2,-1.8794125E2,-2.0121469E2,-2.680898E2,-1.3266896E2,-1.09785355E2,-1.7157661E2,-1.4448888E2,-9.300384E1,-7.642564E1,-1.24205086E2,-1.06583595E2,4.237793E1,-6.1342236E1,-1.0274866E2,-8.404701E1,-4.6604103E1,-3.23269E1,-6.859893E1,-4.689355E1,-3.3908707E1,-1.981529E1,-6.2655075E1,-4.1540237E1,-1.0068214E1,4.9875946E0,-3.5169537E1,-2.1107006E1,-9.794651E0,6.22234E0,-2.8208834E1,-1.2342333E1,6.578078E0,2.562443E1,-1.2450358E1,3.5553625E0,4.3108994E1,1.0483156E1,2.2667894E1,-1.2998855E0,4.8414272E1,6.569815E1,3.1991129E1,4.5094074E1,7.0297844E1,8.8228806E1,4.892016E1,6.695371E1,1.1347632E2,8.218621E1,7.361051E1,9.400197E1,1.11969696E2,1.3710721E2,1.09859055E2,8.9380714E1,1.3688115E2,1.6192194E2,1.2939491E2,1.4961339E2,1.8209285E2,1.9945062E2,1.8154271E2,1.1593956E2,2.3878601E1,-3.087894E1,-4.0021362E1,-3.6183743E1,-2.9538782E1,-4.1999687E1,-5.521258E1,-4.7574944E1,-3.0758528E1,-2.5465322E1,-2.5172396E1,-2.115931E1,-3.667061E1,-3.3130062E1,-2.9247852E1,-2.4840551E1,-1.9862963E1,-1.6712435E1,-1.8592867E1,-1.4465929E1,-2.6781284E1,-2.3768528E1,-2.3175203E1,-2.0306776E1,1.694808E1,-9.316729E0,-1.3123097E1,-9.913104E0,-2.184402E1,-1.9163721E1,-7.138199E-1,-1.6920368E1,-1.1119865E1,-8.559971E0,-8.664859E0,-5.329627E0,-1.6015072E1,-1.3106173E1,-1.125611E1,-3.8754334E0,-7.507539E0,-4.9514937E0,-6.720534E0,-3.310518E0,-1.3931018E1,-1.129621E1,-7.41689E0,-1.008833E1,-3.451843E0,-1.0868407E0,2.8282301E0,-2.8584092E0,-8.2265005E0,-5.731941E0,-3.5012958E0,-6.3013797E0,-1.6519603E0,-9.03006E0,2.1186442E0,-8.433698E-1,-6.484323E0,-2.838786E0,-2.2495384E0,-7.1501718E0,9.004298E-2,2.9848568E0,5.78968E0,7.6485777E-1,-3.5492172E0,-6.111389E-1,-3.525862E-2,3.365548E0,5.771194E0,9.562267E0,2.9522278E0,-5.6079583E0,2.1921105E0,5.5667863E0,1.0981282E1,-6.5793675E-1,8.509824E0,1.1472359E1,8.3415575E0,1.3821752E1,6.857187E0,1.8613163E0,5.916871E0,9.561244E0,1.5562831E1,1.0710357E1,1.8516394E1,1.3526557E1,7.9965143E0,1.1821458E1,9.276812E0,1.4032893E1,2.0129513E1,2.3887705E1,1.3968022E1,1.807186E1,1.3155507E1,1.646964E1,1.9520786E1,1.2601044E1,2.2119642E1,3.39988E1,2.4332762E1,2.916519E1,2.2339355E1,1.3898537E1,1.4456558E1,1.8985521E1,3.0150846E1,2.5761213E1,2.8377325E1,3.2922806E1,3.076248E1,2.5041584E1,2.4401266E1,3.1453352E1,3.4195305E1,3.7241467E1,4.3363285E1,3.9518497E1,3.5272022E1,4.1341175E1,2.7046087E1,7.8202767E0],"categories":[],"categories_nodes":[],"categories_segments":[],"categories_sizes":[],"default_left":[0,0,0,0,0,0,0,0,0,0,0,0,0,0,0,0,0,0,0,0,0,0,0,0,0,0,0,0,0,0,0,0,0,0,0,0,0,0,0,0,0,0,0,0,0,0,0,0,0,0,0,0,0,0,0,0,0,0,0,0,0,0,0,0,0,0,0,0,0,0,0,0,0,0,0,0,0,0,0,0,0,0,0,0,0,0,0,0,0,0,0,0,0,0,0,0,0,0,0,0,0,0,0,0,0,0,0,0,0,0,0,0,0,0,0,0,0,0,0,0,0,0,0,0,0,0,0,0,0,0,0,0,0,0,0,0,0,0,0,0,0,0,0,0,0,0,0,0,0,0,0,0,0,0,0,0,0,0,0,0,0,0,0,0,0,0,0,0,0,0,0,0,0,0,0,0,0,0,0,0,0,0,0,0,0,0,0,0,0,0,0,0,0,0,0,0,0,0,0,0,0,0,0,0,0,0,0,0,0,0,0,0,0,0,0,0,0,0,0,0,0,0,0,0,0,0,0,0,0,0,0,0,0,0,0,0,0,0,0,0,0,0,0,0,0,0,0,0,0,0,0,0,0,0,0],"id":0,"left_children":[1,3,5,7,9,11,13,15,17,19,21,23,25,27,29,31,33,35,37,39,41,43,45,47,49,51,53,55,57,59,61,63,65,67,69,71,73,75,77,79,81,83,85,87,89,91,93,95,97,99,101,103,105,107,109,111,113,115,117,119,121,123,125,127,129,131,133,135,137,139,141,143,145,147,149,151,153,155,157,159,161,163,165,167,169,171,173,175,177,179,181,183,185,187,189,191,193,195,197,199,201,203,205,207,209,211,213,215,217,219,221,223,225,227,229,231,233,235,237,239,241,243,245,247,249,251,253,-1,-1,-1,-1,-1,-1,-1,-1,-1,-1,-1,-1,-1,-1,-1,-1,-1,-1,-1,-1,-1,-1,-1,-1,-1,-1,-1,-1,-1,-1,-1,-1,-1,-1,-1,-1,-1,-1,-1,-1,-1,-1,-1,-1,-1,-1,-1,-1,-1,-1,-1,-1,-1,-1,-1,-1,-1,-1,-1,-1,-1,-1,-1,-1,-1,-1,-1,-1,-1,-1,-1,-1,-1,-1,-1,-1,-1,-1,-1,-1,-1,-1,-1,-1,-1,-1,-1,-1,-1,-1,-1,-1,-1,-1,-1,-1,-1,-1,-1,-1,-1,-1,-1,-1,-1,-1,-1,-1,-1,-1,-1,-1,-1,-1,-1,-1,-1,-1,-1,-1,-1,-1,-1,-1,-1,-1,-1,-1],"loss_changes":[3.9876221E9,6.939176E8,7.1530086E8,1.3162342E8,1.0743878E8,1.2179606E8,9.892173E7,3.3619456E7,1.9242624E7,1.445808E7,1.3694162E7,1.3854464E7,1.4372224E7,1.0470272E7,1.3922816E7,7.499936E6,7.751936E6,8.794048E6,8.770944E6,6.38624E6,5.821344E6,4.695684E6,4.532461E6,6.086528E6,3.613344E6,4.15184E6,4.16976E6,4.443904E6,2.608576E6,1.982144E6,1.306048E6,4.68008E5,3.50232E6,7.09728E5,4.573248E6,6.7984E5,3.513472E6,1.297612E6,3.295584E6,6.00598E5,2.812352E6,7.16684E5,4.356064E6,6.9265856E5,2.668316E6,2.1447648E6,7.689775E5,4.780518E6,8.349908E5,2.913624E6,5.30675E5,2.7208E6,4.62E5,2.857728E6,7.19472E5,3.573696E6,9.27928E5,2.344192E6,2.91588E5,1.162496E6,4.1988E5,1.463424E6,2.0502E6,1.25784E5,1.64656E5,4.9128E5,6.1368E5,1.87724E5,3.43228E5,5.54464E5,8.62656E5,2.08952E5,5.30612E5,8.444E5,1.688832E6,4.6372056E5,7.10456E5,5.40352E5,1.825408E6,3.79792E5,2.49838E5,1.724784E6,1.75713E6,1.783695E5,4.90041E5,5.23672E5,1.943752E6,4.150795E5,7.1475856E5,7.43038E5,1.706532E6,5.7771856E5,1.7724816E6,2.3104225E5,3.543355E5,9.166544E5,3.608114E6,2.18803E5,6.2311394E5,2.705872E6,4.8459775E5,5.85872E5,1.14480266E5,6.34914E5,2.993664E6,2.1139475E5,3.36702E5,1.513684E6,3.05288E6,2.746975E5,5.42668E5,3.015648E6,4.00946E5,2.20304E5,7.84436E5,3.39148E5,2.959552E6,1.95574E5,8.59875E4,2.19872E5,8.79488E5,3.07176E5,3.2204E5,3.72448E5,3.25152E5,3.37568E5,8.559145E5,0E0,0E0,0E0,0E0,0E0,0E0,0E0,0E0,0E0,0E0,0E0,0E0,0E0,0E0,0E0,0E0,0E0,0E0,0E0,0E0,0E0,0E0,0E0,0E0,0E0,0E0,0E0,0E0,0E0,0E0,0E0,0E0,0E0,0E0,0E0,0E0,0E0,0E0,0E0,0E0,0E0,0E0,0E0,0E0,0E0,0E0,0E0,0E0,0E0,0E0,0E0,0E0,0E0,0E0,0E0,0E0,0E0,0E0,0E0,0E0,0E0,0E0,0E0,0E0,0E0,0E0,0E0,0E0,0E0,0E0,0E0,0E0,0E0,0E0,0E0,0E0,0E0,0E0,0E0,0E0,0E0,0E0,0E0,0E0,0E0,0E0,0E0,0E0,0E0,0E0,0E0,0E0,0E0,0E0,0E0,0E0,0E0,0E0,0E0,0E0,0E0,0E0,0E0,0E0,0E0,0E0,0E0,0E0,0E0,0E0,0E0,0E0,0E0,0E0,0E0,0E0,0E0,0E0,0E0,0E0,0E0,0E0,0E0,0E0,0E0,0E0,0E0,0E0],"parents":[2147483647,0,0,1,1,2,2,3,3,4,4,5,5,6,6,7,7,8,8,9,9,10,10,11,11,12,12,13,13,14,14,15,15,16,16,17,17,18,18,19,19,20,20,21,21,22,22,23,23,24,24,25,25,26,26,27,27,28,28,29,29,30,30,31,31,32,32,33,33,34,34,35,35,36,36,37,37,38,38,39,39,40,40,41,41,42,42,43,43,44,44,45,45,46,46,47,47,48,48,49,49,50,50,51,51,52,52,53,53,54,54,55,55,56,56,57,57,58,58,59,59,60,60,61,61,62,62,63,63,64,64,65,65,66,66,67,67,68,68,69,69,70,70,71,71,72,72,73,73,74,74,75,75,76,76,77,77,78,78,79,79,80,80,81,81,82,82,83,83,84,84,85,85,86,86,87,87,88,88,89,89,90,90,91,91,92,92,93,93,94,94,95,95,96,96,97,97,98,98,99,99,100,100,101,101,102,102,103,103,104,104,105,105,106,106,107,107,108,108,109,109,110,110,111,111,112,112,113,113,114,114,115,115,116,116,117,117,118,118,119,119,120,120,121,121,122,122,123,123,124,124,125,125,126,126],"right_children":[2,4,6,8,10,12,14,16,18,20,22,24,26,28,30,32,34,36,38,40,42,44,46,48,50,52,54,56,58,60,62,64,66,68,70,72,74,76,78,80,82,84,86,88,90,92,94,96,98,100,102,104,106,108,110,112,114,116,118,120,122,124,126,128,130,132,134,136,138,140,142,144,146,148,150,152,154,156,158,160,162,164,166,168,170,172,174,176,178,180,182,184,186,188,190,192,194,196,198,200,202,204,206,208,210,212,214,216,218,220,222,224,226,228,230,232,234,236,238,240,242,244,246,248,250,252,254,-1,-1,-1,-1,-1,-1,-1,-1,-1,-1,-1,-1,-1,-1,-1,-1,-1,-1,-1,-1,-1,-1,-1,-1,-1,-1,-1,-1,-1,-1,-1,-1,-1,-1,-1,-1,-1,-1,-1,-1,-1,-1,-1,-1,-1,-1,-1,-1,-1,-1,-1,-1,-1,-1,-1,-1,-1,-1,-1,-1,-1,-1,-1,-1,-1,-1,-1,-1,-1,-1,-1,-1,-1,-1,-1,-1,-1,-1,-1,-1,-1,-1,-1,-1,-1,-1,-1,-1,-1,-1,-1,-1,-1,-1,-1,-1,-1,-1,-1,-1,-1,-1,-1,-1,-1,-1,-1,-1,-1,-1,-1,-1,-1,-1,-1,-1,-1,-1,-1,-1,-1,-1,-1,-1,-1,-1,-1,-1],"split_conditions":[1.7975908E3,9.074306E2,2.953185E3,4.0579657E2,1.3615491E3,2.306332E3,3.8583862E3,1.10760895E2,6.789979E2,1.1269625E3,1.5912217E3,2.085931E3,2.6007476E3,3.4269036E3,4.4961675E3,2E0,7E0,7E0,8E0,8E0,8E0,8E0,1.9E1,2E1,2E1,2E1,2E1,2E1,9.489906E-2,3.208245E-2,2E0,7E0,3E0,2.1433124E2,2.1433124E2,5.030841E2,5.030841E2,-4.512229E-1,5.1474117E1,2E0,3.2E1,2E0,5.1464897E1,2E0,5.1483574E1,5.1464897E1,5.1464897E1,5.1473766E1,5.1473766E1,1.09557636E-1,7.1478106E-2,5.1464897E1,2.3962815E3,5.1464897E1,5.146707E1,9.992507E-2,5.1473766E1,-3.038192E-1,1.9E1,-3.7006494E-1,4.270458E3,4.9909326E3,6.1919854E3,5.1331833E1,6.528381E1,7E0,6E0,1E0,1E0,1.4806894E2,3.2E1,1E0,1E0,5.148745E1,5.149453E1,5.1474407E1,2E0,7.962239E2,-4.5237952E-1,9.7292816E2,2E0,5.1464897E1,6.7E1,2E0,5.1464897E1,1.2406057E3,1.9E1,5.150065E1,3E0,2.2E1,2E1,5.1473793E1,5.155484E1,-4.861122E-2,1.09557636E-1,2.2E1,3.409196E-2,-9.38868E-2,2.6E1,5.146707E1,7.5E1,5.1477985E1,5.1388176E1,7.3E1,-3.1373572E-1,9.992507E-2,-3.044808E-1,5.1450737E1,2.0723926E-2,-9.253102E-2,-3.065205E-1,5.146707E1,3.1311833E3,-1.0296929E-1,9.992507E-2,9E1,5.1473766E1,7.9E1,1E0,5.1510002E1,5.138227E1,1.1E1,1E0,5.145699E1,7E0,5.1604347E1,1.8E1,2.3878601E1,-3.087894E1,-4.0021362E1,-3.6183743E1,-2.9538782E1,-4.1999687E1,-5.521258E1,-4.7574944E1,-3.0758528E1,-2.5465322E1,-2.5172396E1,-2.115931E1,-3.667061E1,-3.3130062E1,-2.9247852E1,-2.4840551E1,-1.9862963E1,-1.6712435E1,-1.8592867E1,-1.4465929E1,-2.6781284E1,-2.3768528E1,-2.3175203E1,-2.0306776E1,1.694808E1,-9.316729E0,-1.3123097E1,-9.913104E0,-2.184402E1,-1.9163721E1,-7.138199E-1,-1.6920368E1,-1.1119865E1,-8.559971E0,-8.664859E0,-5.329627E0,-1.6015072E1,-1.3106173E1,-1.125611E1,-3.8754334E0,-7.507539E0,-4.9514937E0,-6.720534E0,-3.310518E0,-1.3931018E1,-1.129621E1,-7.41689E0,-1.008833E1,-3.451843E0,-1.0868407E0,2.8282301E0,-2.8584092E0,-8.2265005E0,-5.731941E0,-3.5012958E0,-6.3013797E0,-1.6519603E0,-9.03006E0,2.1186442E0,-8.433698E-1,-6.484323E0,-2.838786E0,-2.2495384E0,-7.1501718E0,9.004298E-2,2.9848568E0,5.78968E0,7.6485777E-1,-3.5492172E0,-6.111389E-1,-3.525862E-2,3.365548E0,5.771194E0,9.562267E0,2.9522278E0,-5.6079583E0,2.1921105E0,5.5667863E0,1.0981282E1,-6.5793675E-1,8.509824E0,1.1472359E1,8.3415575E0,1.3821752E1,6.857187E0,1.8613163E0,5.916871E0,9.561244E0,1.5562831E1,1.0710357E1,1.8516394E1,1.3526557E1,7.9965143E0,1.1821458E1,9.276812E0,1.4032893E1,2.0129513E1,2.3887705E1,1.3968022E1,1.807186E1,1.3155507E1,1.646964E1,1.9520786E1,1.2601044E1,2.2119642E1,3.39988E1,2.4332762E1,2.916519E1,2.2339355E1,1.3898537E1,1.4456558E1,1.8985521E1,3.0150846E1,2.5761213E1,2.8377325E1,3.2922806E1,3.076248E1,2.5041584E1,2.4401266E1,3.1453352E1,3.4195305E1,3.7241467E1,4.3363285E1,3.9518497E1,3.5272022E1,4.1341175E1,2.7046087E1,7.8202767E0],"split_indices":[10,10,10,10,10,10,10,10,10,10,10,10,10,10,10,1,0,0,0,0,0,0,0,0,0,0,0,0,7,9,1,0,3,10,10,10,10,7,8,1,4,0,8,1,6,8,8,8,8,7,7,8,10,8,8,7,8,9,0,7,10,10,10,8,10,0,3,0,0,10,4,1,0,8,8,6,1,10,9,10,0,8,5,1,8,10,0,8,3,4,0,6,8,7,7,4,7,7,4,8,2,8,6,5,9,7,7,8,7,7,9,8,10,7,7,2,8,5,4,6,6,2,4,8,0,6,4,0,0,0,0,0,0,0,0,0,0,0,0,0,0,0,0,0,0,0,0,0,0,0,0,0,0,0,0,0,0,0,0,0,0,0,0,0,0,0,0,0,0,0,0,0,0,0,0,0,0,0,0,0,0,0,0,0,0,0,0,0,0,0,0,0,0,0,0,0,0,0,0,0,0,0,0,0,0,0,0,0,0,0,0,0,0,0,0,0,0,0,0,0,0,0,0,0,0,0,0,0,0,0,0,0,0,0,0,0,0,0,0,0,0,0,0,0,0,0,0,0,0,0,0,0,0,0,0],"split_type":[0,0,0,0,0,0,0,0,0,0,0,0,0,0,0,0,0,0,0,0,0,0,0,0,0,0,0,0,0,0,0,0,0,0,0,0,0,0,0,0,0,0,0,0,0,0,0,0,0,0,0,0,0,0,0,0,0,0,0,0,0,0,0,0,0,0,0,0,0,0,0,0,0,0,0,0,0,0,0,0,0,0,0,0,0,0,0,0,0,0,0,0,0,0,0,0,0,0,0,0,0,0,0,0,0,0,0,0,0,0,0,0,0,0,0,0,0,0,0,0,0,0,0,0,0,0,0,0,0,0,0,0,0,0,0,0,0,0,0,0,0,0,0,0,0,0,0,0,0,0,0,0,0,0,0,0,0,0,0,0,0,0,0,0,0,0,0,0,0,0,0,0,0,0,0,0,0,0,0,0,0,0,0,0,0,0,0,0,0,0,0,0,0,0,0,0,0,0,0,0,0,0,0,0,0,0,0,0,0,0,0,0,0,0,0,0,0,0,0,0,0,0,0,0,0,0,0,0,0,0,0,0,0,0,0,0,0,0,0,0,0,0,0,0,0,0,0,0,0,0,0,0,0,0,0],"sum_hessian":[8.65185E5,4.7641E5,3.88775E5,1.79199E5,2.97211E5,2.57087E5,1.31688E5,4.7377E4,1.31822E5,1.48687E5,1.48524E5,1.38734E5,1.18353E5,8.4321E4,4.7367E4,6.798E3,4.0579E4,6.4352E4,6.747E4,7.1124E4,7.7563E4,8.1265E4,6.7259E4,8.4693E4,5.4041E4,6.0869E4,5.7484E4,5.3995E4,3.0326E4,2.3679E4,2.3688E4,2.869E3,3.929E3,7.395E3,3.3184E4,1.1576E4,5.2776E4,1.4302E4,5.3168E4,1.5185E4,5.5939E4,1.6303E4,6.126E4,1.6506E4,6.4759E4,4.9496E4,1.7763E4,6.7715E4,1.6978E4,4.3329E4,1.0712E4,4.8766E4,1.2103E4,4.6177E4,1.1307E4,4.3618E4,1.0377E4,2.6608E4,3.718E3,1.8873E4,4.806E3,2.0241E4,3.447E3,5.19E2,2.35E3,1.11E3,2.819E3,1.836E3,5.559E3,8.379E3,2.4805E4,3.645E3,7.931E3,1.6536E4,3.624E4,1.21E2,1.4181E4,1.2281E4,4.0887E4,1.1167E4,4.018E3,4.9133E4,6.806E3,5.398E3,1.0905E4,1.2207E4,4.9053E4,1.2458E4,4.048E3,1.9171E4,4.5588E4,1.0652E4,3.8844E4,3.92E3,1.3843E4,1.7922E4,4.9793E4,4.398E3,1.258E4,4.0392E4,2.937E3,9.691E3,1.021E3,1.2144E4,3.6622E4,4.066E3,8.037E3,1.2058E4,3.4119E4,3.042E3,8.265E3,3.9583E4,4.035E3,3.297E3,7.08E3,4.497E3,2.2111E4,2.74E3,9.78E2,2.135E3,1.6738E4,3.192E3,1.614E3,8.838E3,1.1403E4,2.867E3,5.8E2,1E0,5.18E2,8.5E2,1.5E3,1.59E2,9.51E2,2.224E3,5.95E2,3.65E2,1.471E3,1.099E3,4.46E3,2.795E3,5.584E3,2.2829E4,1.976E3,2.179E3,1.466E3,1.57E3,6.361E3,5.878E3,1.0658E4,1.2752E4,2.3488E4,8.2E1,3.9E1,1.0402E4,3.779E3,6.343E3,5.938E3,2.8E2,4.0607E4,3.315E3,7.852E3,1.366E3,2.652E3,1.0359E4,3.8774E4,5.074E3,1.732E3,3.863E3,1.535E3,2.085E3,8.82E3,5.716E3,6.491E3,3.2693E4,1.636E4,4.881E3,7.577E3,2.745E3,1.303E3,1.0003E4,9.168E3,3.3866E4,1.1722E4,1.021E4,4.42E2,2.738E4,1.1464E4,3.013E3,9.07E2,1.3226E4,6.17E2,1.0335E4,7.587E3,4.3205E4,6.588E3,2.812E3,1.586E3,9.82E3,2.76E3,1.0022E4,3.037E4,2.644E3,2.93E2,2.968E3,6.723E3,3.4E1,9.87E2,7.339E3,4.805E3,4.56E3,3.2062E4,3.692E3,3.74E2,1.198E3,6.839E3,8.32E3,3.738E3,2.8163E4,5.956E3,1.623E3,1.419E3,1.118E3,7.147E3,1.2565E4,2.7018E4,1.611E3,2.424E3,1.743E3,1.554E3,6.341E3,7.39E2,4.396E3,1.01E2,7.984E3,1.4127E4,2.619E3,1.21E2,2.43E2,7.35E2,7.79E2,1.356E3,1.989E3,1.4749E4,4.62E2,2.73E3,3.54E2,1.26E3,2.399E3,6.439E3,1.091E3,1.0312E4,2.384E3,4.83E2,4.63E2,1.17E2],"tree_param":{"num_deleted":"0","num_feature":"11","num_nodes":"255","size_leaf_vector":"1"}},{"base_weights":[-1.7880633E-2,-4.5768635E1,6.47851E1,-8.360252E1,-1.9086914E1,4.1050175E1,1.108627E2,-1.2146401E2,-7.0443245E1,-3.4167946E1,-3.9082694E0,2.5643494E1,5.9301193E1,9.5830894E1,1.4104532E2,-1.7699168E2,-1.1336104E2,-8.231705E1,-6.126142E1,-4.28191E1,-2.7541126E1,-1.1814584E1,3.3105454E0,1.7165121E1,3.3282192E1,5.0951397E1,6.764095E1,8.7935074E1,1.0681623E2,1.2718786E2,1.5089272E2,-1.4610036E2,-1.9932393E2,-8.9951675E1,-1.1855333E2,-6.430861E1,-8.7167E1,-4.4163216E1,-6.589903E1,-2.6789972E1,-4.630796E1,-1.5318107E1,-3.0730722E1,-8.084423E0,-2.2201342E1,6.6875024E0,-1.0072582E1,5.6130533E0,2.1413263E1,3.5297966E1,8.428623E0,5.48421E1,3.998951E1,7.1220184E1,5.298448E1,9.164203E1,7.2391014E1,1.0961693E2,8.648356E1,1.3184203E2,1.1533577E2,1.5616013E2,1.424498E2,-1.2249116E2,-1.5130067E2,-1.6033597E2,-2.1481935E2,-9.9837234E1,-8.2705795E1,-1.348859E2,-1.1201009E2,-6.81873E1,-5.409537E1,-8.9162575E1,-7.021512E1,3.6704056E1,-4.4773605E1,-6.821779E1,-4.944358E1,-3.2620235E1,-1.9027712E1,-5.8486862E1,-4.335051E1,-2.3063166E1,-1.1469769E1,-4.23399E1,-2.7424126E1,-1.871653E1,-4.9693937E0,-3.4043E1,-1.8727846E1,-1.4105163E0,1.0337857E1,-1.6142878E1,-5.803886E0,-1.3474135E1,8.692152E0,2.5283287E1,6.0746746E0,3.918121E1,2.4135603E1,3.6607178E1,3.1162999E0,3.3050842E1,5.6999203E1,3.127313E1,4.4486057E1,6.94431E1,9.538703E1,4.1701656E1,5.7344734E1,8.973301E1,1.1955459E2,5.824661E1,7.761707E1,1.133713E2,9.3551254E1,5.95733E1,9.003059E1,1.2703028E2,1.4454584E2,1.20252945E2,1.0144068E2,1.5019092E2,1.6467746E2,1.4732741E2,1.2532108E2,-2.867077E1,-2.1988821E1,-3.0787704E1,-2.3789875E1,-2.2967962E1,-3.3581955E1,-4.5094067E1,-3.8470753E1,-2.1939901E1,-1.8776213E1,-1.6971691E1,-1.2865686E1,-2.9411747E1,-2.6160934E1,-2.3747778E1,-2.1531633E1,-1.5356585E1,-1.29064665E1,-1.4588661E1,-9.973157E0,-1.8781141E1,-1.665098E1,-1.2467461E1,-1.7544855E1,1.25948715E1,-5.343637E0,-1.1632357E1,-8.386065E0,-1.5290027E1,-1.2765043E1,-1.2374947E1,-5.1863513E0,-9.026029E0,-5.877917E0,-4.718488E0,-2.2040117E0,-1.1096145E1,-1.6434387E1,-9.1082325E0,-6.1566553E0,-5.567558E0,-3.4717598E0,-2.9344063E0,-3.8965562E-1,-9.308028E0,-7.156696E0,-4.6626754E0,-7.4174094E0,-7.280404E0,-3.2379377E0,-4.8938322E-1,-3.7007825E0,-8.8751955E0,-5.962692E0,-3.2504444E0,-6.3635817E0,2.0261781E0,-9.619131E-1,2.6769378E0,-8.308126E-1,-4.7950616E0,-1.9527239E0,-3.635585E-3,-2.9448898E0,-8.599205E0,1.5042903E0,2.5206554E0,-4.908622E-1,5.871141E0,2.016627E0,4.508869E0,3.9208612E-1,5.612715E0,8.547443E0,2.7009103E0,5.496417E0,8.188587E0,-3.553269E0,2.6878247E0,-9.787578E-1,1.828172E1,5.5122895E0,1.2065337E1,8.42323E0,1.979189E1,6.0281634E0,3.8048718E0,9.478081E0,1.0733089E1,1.435575E1,2.026236E1,1.0345493E1,5.2104163E0,9.355227E0,1.24668255E1,8.390125E0,1.8408964E1,1.4087325E1,1.8135826E1,2.4569805E1,1.1088809E1,1.9054016E1,1.4656778E1,1.873679E1,1.783378E1,2.3198206E1,1.654389E1,1.9666718E1,9.4666815E0,2.1944418E1,1.9397787E1,1.575779E1,2.2618423E1,2.6746572E1,2.9416758E1,2.2684275E1,2.4826544E1,2.0635218E1,2.2358393E1,1.8283224E1,2.6191008E1,3.0488647E1,3.1643005E1,3.4381004E1,3.7702778E1,2.9242743E1,2.6978964E1,1.7432898E1],"categories":[],"categories_nodes":[],"categories_segments":[],"categories_sizes":[],"default_left":[0,0,0,0,0,0,0,0,0,0,0,0,0,0,0,0,0,0,0,0,0,0,0,0,0,0,0,0,0,0,0,0,0,0,0,0,0,0,0,0,0,0,0,0,0,0,0,0,0,0,0,0,0,0,0,0,0,0,0,0,0,0,0,0,0,0,0,0,0,0,0,0,0,0,0,0,0,0,0,0,0,0,0,0,0,0,0,0,0,0,0,0,0,0,0,0,0,0,0,0,0,0,0,0,0,0,0,0,0,0,0,0,0,0,0,0,0,0,0,0,0,0,0,0,0,0,0,0,0,0,0,0,0,0,0,0,0,0,0,0,0,0,0,0,0,0,0,0,0,0,0,0,0,0,0,0,0,0,0,0,0,0,0,0,0,0,0,0,0,0,0,0,0,0,0,0,0,0,0,0,0,0,0,0,0,0,0,0,0,0,0,0,0,0,0,0,0,0,0,0,0,0,0,0,0,0,0,0,0,0,0,0,0,0,0,0,0,0,0,0,0,0,0,0,0,0,0,0,0,0,0,0,0,0,0,0,0,0,0,0,0,0,0,0,0,0,0,0,0,0,0,0,0,0,0],"id":1,"left_children":[1,3,5,7,9,11,13,15,17,19,21,23,25,27,29,31,33,35,37,39,41,43,45,47,49,51,53,55,57,59,61,63,65,67,69,71,73,75,77,79,81,83,85,87,89,91,93,95,97,99,101,103,105,107,109,111,113,115,117,119,121,123,125,127,129,131,133,135,137,139,141,143,145,147,149,151,153,155,157,159,161,163,165,167,169,171,173,175,177,179,181,183,185,187,189,191,193,195,197,199,201,203,205,207,209,211,213,215,217,219,221,223,225,227,229,231,233,235,237,239,241,243,245,247,249,251,253,-1,-1,-1,-1,-1,-1,-1,-1,-1,-1,-1,-1,-1,-1,-1,-1,-1,-1,-1,-1,-1,-1,-1,-1,-1,-1,-1,-1,-1,-1,-1,-1,-1,-1,-1,-1,-1,-1,-1,-1,-1,-1,-1,-1,-1,-1,-1,-1,-1,-1,-1,-1,-1,-1,-1,-1,-1,-1,-1,-1,-1,-1,-1,-1,-1,-1,-1,-1,-1,-1,-1,-1,-1,-1,-1,-1,-1,-1,-1,-1,-1,-1,-1,-1,-1,-1,-1,-1,-1,-1,-1,-1,-1,-1,-1,-1,-1,-1,-1,-1,-1,-1,-1,-1,-1,-1,-1,-1,-1,-1,-1,-1,-1,-1,-1,-1,-1,-1,-1,-1,-1,-1,-1,-1,-1,-1,-1,-1],"loss_changes":[2.5673884E9,5.1240493E8,3.9191872E8,1.045833E8,6.8139864E7,6.65072E7,5.526336E7,2.4340992E7,1.6979136E7,8.55904E6,8.467399E6,8.306024E6,7.535904E6,7.04544E6,5.507776E6,4.726176E6,5.732544E6,5.927488E6,6.963552E6,3.620584E6,3.295956E6,2.743187E6,3.504926E6,2.98319E6,3.379896E6,2.305408E6,2.837616E6,2.720416E6,1.927104E6,9.1328E5,1.030464E6,3.37024E5,2.380896E6,6.06472E5,4.117504E6,5.67424E5,1.804096E6,9.27052E5,2.633536E6,5.233985E5,1.913144E6,5.21333E5,2.572836E6,1.7253905E6,7.68898E5,1.8305865E6,4.0481112E5,9.6079344E5,2.638192E6,2.7042E6,7.577846E5,1.875072E6,5.54258E5,1.862848E6,5.20812E5,2.025312E6,6.69476E5,1.792096E6,3.88086E5,7.2E5,3.12612E5,7.15904E5,7.42304E5,1.22451E5,1.83856E5,3.73882E5,6.40496E5,2.02636E5,1.9068E5,5.30016E5,7.95904E5,3.23192E5,3.13087E5,1.333632E6,7.72616E5,2.3660569E5,7.059E5,2.185376E6,2.494166E6,2.658585E5,1.813705E5,7.35144E5,1.176848E6,1.5770475E5,3.5649462E5,4.07638E5,2.072296E6,5.2695775E5,1.3756469E6,1.840685E5,4.68334E5,7.549088E5,1.884788E6,3.2209062E5,4.7358934E5,1.4079559E6,6.136771E5,2.196644E6,6.0681656E5,1.8292E6,5.72769E5,1.9003512E5,3.5239394E5,1.150416E6,1.796728E6,3.670455E5,6.90528E5,1.490512E6,7.65346E5,2.344805E5,5.86342E5,1.58912E6,2.21256E5,2.50384E5,4.5646E5,1.525344E6,2.8542E5,2.9127962E5,2.77088E5,8.04096E5,2.44856E5,2.19484E5,1.19384E5,3.516E5,2.52672E5,2.97296E5,7.27978E5,0E0,0E0,0E0,0E0,0E0,0E0,0E0,0E0,0E0,0E0,0E0,0E0,0E0,0E0,0E0,0E0,0E0,0E0,0E0,0E0,0E0,0E0,0E0,0E0,0E0,0E0,0E0,0E0,0E0,0E0,0E0,0E0,0E0,0E0,0E0,0E0,0E0,0E0,0E0,0E0,0E0,0E0,0E0,0E0,0E0,0E0,0E0,0E0,0E0,0E0,0E0,0E0,0E0,0E0,0E0,0E0,0E0,0E0,0E0,0E0,0E0,0E0,0E0,0E0,0E0,0E0,0E0,0E0,0E0,0E0,0E0,0E0,0E0,0E0,0E0,0E0,0E0,0E0,0E0,0E0,0E0,0E0,0E0,0E0,0E0,0E0,0E0,0E0,0E0,0E0,0E0,0E0,0E0,0E0,0E0,0E0,0E0,0E0,0E0,0E0,0E0,0E0,0E0,0E0,0E0,0E0,0E0,0E0,0E0,0E0,0E0,0E0,0E0,0E0,0E0,0E0,0E0,0E0,0E0,0E0,0E0,0E0,0E0,0E0,0E0,0E0,0E0,0E0],"parents":[2147483647,0,0,1,1,2,2,3,3,4,4,5,5,6,6,7,7,8,8,9,9,10,10,11,11,12,12,13,13,14,14,15,15,16,16,17,17,18,18,19,19,20,20,21,21,22,22,23,23,24,24,25,25,26,26,27,27,28,28,29,29,30,30,31,31,32,32,33,33,34,34,35,35,36,36,37,37,38,38,39,39,40,40,41,41,42,42,43,43,44,44,45,45,46,46,47,47,48,48,49,49,50,50,51,51,52,52,53,53,54,54,55,55,56,56,57,57,58,58,59,59,60,60,61,61,62,62,63,63,64,64,65,65,66,66,67,67,68,68,69,69,70,70,71,71,72,72,73,73,74,74,75,75,76,76,77,77,78,78,79,79,80,80,81,81,82,82,83,83,84,84,85,85,86,86,87,87,88,88,89,89,90,90,91,91,92,92,93,93,94,94,95,95,96,96,97,97,98,98,99,99,100,100,101,101,102,102,103,103,104,104,105,105,106,106,107,107,108,108,109,109,110,110,111,111,112,112,113,113,114,114,115,115,116,116,117,117,118,118,119,119,120,120,121,121,122,122,123,123,124,124,125,125,126,126],"right_children":[2,4,6,8,10,12,14,16,18,20,22,24,26,28,30,32,34,36,38,40,42,44,46,48,50,52,54,56,58,60,62,64,66,68,70,72,74,76,78,80,82,84,86,88,90,92,94,96,98,100,102,104,106,108,110,112,114,116,118,120,122,124,126,128,130,132,134,136,138,140,142,144,146,148,150,152,154,156,158,160,162,164,166,168,170,172,174,176,178,180,182,184,186,188,190,192,194,196,198,200,202,204,206,208,210,212,214,216,218,220,222,224,226,228,230,232,234,236,238,240,242,244,246,248,250,252,254,-1,-1,-1,-1,-1,-1,-1,-1,-1,-1,-1,-1,-1,-1,-1,-1,-1,-1,-1,-1,-1,-1,-1,-1,-1,-1,-1,-1,-1,-1,-1,-1,-1,-1,-1,-1,-1,-1,-1,-1,-1,-1,-1,-1,-1,-1,-1,-1,-1,-1,-1,-1,-1,-1,-1,-1,-1,-1,-1,-1,-1,-1,-1,-1,-1,-1,-1,-1,-1,-1,-1,-1,-1,-1,-1,-1,-1,-1,-1,-1,-1,-1,-1,-1,-1,-1,-1,-1,-1,-1,-1,-1,-1,-1,-1,-1,-1,-1,-1,-1,-1,-1,-1,-1,-1,-1,-1,-1,-1,-1,-1,-1,-1,-1,-1,-1,-1,-1,-1,-1,-1,-1,-1,-1,-1,-1,-1,-1],"split_conditions":[1.8962013E3,1.00281775E3,3.02674E3,4.3893262E2,1.4467109E3,2.3962815E3,4.002169E3,1.10760895E2,7.147665E2,1.1987081E3,1.6529895E3,2.111808E3,2.6766697E3,3.4637515E3,4.4961675E3,2E0,7E0,8E0,8E0,7E0,8E0,1.9E1,2E1,5.1473766E1,1.09557636E-1,1.9E1,2E1,2E1,9.489906E-2,1.7729467E-2,3E0,7E0,3E0,2.9135806E2,2.4006E2,2E0,3.2E1,-4.512229E-1,3.2E1,1E0,5.1464897E1,2E0,5.1473766E1,5.1473766E1,5.1473766E1,5.14827E1,5.150003E1,-2.946039E-1,-1.3893713E-2,1.9E1,7E0,-3.587482E-1,5.1487366E1,3.2E1,5.146707E1,3.2E1,5.146108E1,2E1,9.086586E-2,-9.4990954E-2,1.9E1,5.245082E3,2E0,6.528381E1,3.2E1,7E0,6.528381E1,2E0,3.2E1,1.4806894E2,5.149453E1,5.327885E2,1E0,6.014216E2,5.151804E1,5.1474407E1,1E0,8.189468E2,6.7E1,1E0,5.1533783E1,5.146378E1,3.2E1,5.6E1,2E0,1.3524531E3,5.1552708E1,1E1,-8.456066E-3,2.7E1,-8.456066E-3,8E0,-8.456066E-3,2.1E1,5.155484E1,5.1419846E1,1.9E1,5.158852E1,8E0,5.1464897E1,5.1464897E1,1.6E1,5.1505466E1,-4.5237952E-1,2.0723926E-2,-4.5237952E-1,-3.587482E-1,-3.1373572E-1,8E1,-2.0093979E-1,-1.3893713E-2,8.42379E-2,5.1493874E1,1E2,2.7E1,-3.587482E-1,5.146707E1,5.1537262E1,4.5E1,5.1464897E1,3.208245E-2,7.5E1,8.890835E-2,-3.8095373E-1,-9.134041E-2,5.1336998E1,6.1919854E3,-2.867077E1,-2.1988821E1,-3.0787704E1,-2.3789875E1,-2.2967962E1,-3.3581955E1,-4.5094067E1,-3.8470753E1,-2.1939901E1,-1.8776213E1,-1.6971691E1,-1.2865686E1,-2.9411747E1,-2.6160934E1,-2.3747778E1,-2.1531633E1,-1.5356585E1,-1.29064665E1,-1.4588661E1,-9.973157E0,-1.8781141E1,-1.665098E1,-1.2467461E1,-1.7544855E1,1.25948715E1,-5.343637E0,-1.1632357E1,-8.386065E0,-1.5290027E1,-1.2765043E1,-1.2374947E1,-5.1863513E0,-9.026029E0,-5.877917E0,-4.718488E0,-2.2040117E0,-1.1096145E1,-1.6434387E1,-9.1082325E0,-6.1566553E0,-5.567558E0,-3.4717598E0,-2.9344063E0,-3.8965562E-1,-9.308028E0,-7.156696E0,-4.6626754E0,-7.4174094E0,-7.280404E0,-3.2379377E0,-4.8938322E-1,-3.7007825E0,-8.8751955E0,-5.962692E0,-3.2504444E0,-6.3635817E0,2.0261781E0,-9.619131E-1,2.6769378E0,-8.308126E-1,-4.7950616E0,-1.9527239E0,-3.635585E-3,-2.9448898E0,-8.599205E0,1.5042903E0,2.5206554E0,-4.908622E-1,5.871141E0,2.016627E0,4.508869E0,3.9208612E-1,5.612715E0,8.547443E0,2.7009103E0,5.496417E0,8.188587E0,-3.553269E0,2.6878247E0,-9.787578E-1,1.828172E1,5.5122895E0,1.2065337E1,8.42323E0,1.979189E1,6.0281634E0,3.8048718E0,9.478081E0,1.0733089E1,1.435575E1,2.026236E1,1.0345493E1,5.2104163E0,9.355227E0,1.24668255E1,8.390125E0,1.8408964E1,1.4087325E1,1.8135826E1,2.4569805E1,1.1088809E1,1.9054016E1,1.4656778E1,1.873679E1,1.783378E1,2.3198206E1,1.654389E1,1.9666718E1,9.4666815E0,2.1944418E1,1.9397787E1,1.575779E1,2.2618423E1,2.6746572E1,2.9416758E1,2.2684275E1,2.4826544E1,2.0635218E1,2.2358393E1,1.8283224E1,2.6191008E1,3.0488647E1,3.1643005E1,3.4381004E1,3.7702778E1,2.9242743E1,2.6978964E1,1.7432898E1],"split_indices":[10,10,10,10,10,10,10,10,10,10,10,10,10,10,10,1,0,0,0,0,0,0,0,8,7,0,0,0,7,7,3,0,3,10,10,1,4,7,4,1,8,0,8,8,8,6,6,7,9,0,0,9,6,4,8,4,8,0,9,7,0,10,1,10,4,0,10,0,4,10,8,10,0,10,6,6,0,10,5,0,6,8,4,2,1,10,8,2,7,2,7,0,7,4,8,6,0,8,0,8,8,4,6,9,7,9,9,9,5,9,9,7,6,5,4,9,8,6,5,8,9,2,7,7,7,6,10,0,0,0,0,0,0,0,0,0,0,0,0,0,0,0,0,0,0,0,0,0,0,0,0,0,0,0,0,0,0,0,0,0,0,0,0,0,0,0,0,0,0,0,0,0,0,0,0,0,0,0,0,0,0,0,0,0,0,0,0,0,0,0,0,0,0,0,0,0,0,0,0,0,0,0,0,0,0,0,0,0,0,0,0,0,0,0,0,0,0,0,0,0,0,0,0,0,0,0,0,0,0,0,0,0,0,0,0,0,0,0,0,0,0,0,0,0,0,0,0,0,0,0,0,0,0,0,0],"split_type":[0,0,0,0,0,0,0,0,0,0,0,0,0,0,0,0,0,0,0,0,0,0,0,0,0,0,0,0,0,0,0,0,0,0,0,0,0,0,0,0,0,0,0,0,0,0,0,0,0,0,0,0,0,0,0,0,0,0,0,0,0,0,0,0,0,0,0,0,0,0,0,0,0,0,0,0,0,0,0,0,0,0,0,0,0,0,0,0,0,0,0,0,0,0,0,0,0,0,0,0,0,0,0,0,0,0,0,0,0,0,0,0,0,0,0,0,0,0,0,0,0,0,0,0,0,0,0,0,0,0,0,0,0,0,0,0,0,0,0,0,0,0,0,0,0,0,0,0,0,0,0,0,0,0,0,0,0,0,0,0,0,0,0,0,0,0,0,0,0,0,0,0,0,0,0,0,0,0,0,0,0,0,0,0,0,0,0,0,0,0,0,0,0,0,0,0,0,0,0,0,0,0,0,0,0,0,0,0,0,0,0,0,0,0,0,0,0,0,0,0,0,0,0,0,0,0,0,0,0,0,0,0,0,0,0,0,0,0,0,0,0,0,0,0,0,0,0,0,0,0,0,0,0,0,0],"sum_hessian":[8.65959E5,5.07597E5,3.58362E5,2.09926E5,2.97671E5,2.36527E5,1.21835E5,5.4142E4,1.55784E5,1.49315E5,1.48356E5,1.28259E5,1.08268E5,8.1333E4,4.0502E4,6.892E3,4.725E4,6.793E4,8.7854E4,6.4763E4,8.4552E4,7.0806E4,7.755E4,6.079E4,6.7469E4,5.4105E4,5.4163E4,4.7326E4,3.4007E4,1.6831E4,2.3671E4,2.895E3,3.997E3,8.581E3,3.8669E4,1.4416E4,5.3514E4,1.8747E4,6.9107E4,1.1578E4,5.3185E4,1.7499E4,6.7053E4,5.2098E4,1.8708E4,6.1925E4,1.5625E4,1.6345E4,4.4445E4,6.2407E4,5.062E3,3.9929E4,1.4176E4,4.3529E4,1.0634E4,3.8209E4,9.117E3,2.9886E4,4.121E3,1.2078E4,4.753E3,1.4566E4,9.105E3,5.27E2,2.368E3,1.14E3,2.857E3,3.624E3,4.957E3,1.1055E4,2.7614E4,1.0444E4,3.972E3,4.7874E4,5.64E3,1.4E2,1.8607E4,6.0569E4,8.538E3,6.61E3,4.968E3,1.0388E4,4.2797E4,5.807E3,1.1692E4,1.4862E4,5.2191E4,1.1804E4,4.0294E4,4.241E3,1.4467E4,1.9241E4,4.2684E4,6.45E3,9.175E3,2.27E3,1.4075E4,3.549E4,8.955E3,4.6298E4,1.6109E4,8.02E2,4.26E3,3.598E3,3.6331E4,4.827E3,9.349E3,4.0551E4,2.978E3,2.967E3,7.667E3,3.5767E4,2.442E3,2.463E3,6.654E3,2.422E4,5.666E3,4.82E2,3.639E3,8.768E3,3.31E3,3.505E3,1.248E3,8.575E3,5.991E3,7.081E3,2.024E3,1.94E2,3.33E2,2.186E3,1.82E2,1.65E2,9.75E2,1.932E3,9.25E2,1.358E3,2.266E3,4.434E3,5.23E2,2.767E3,8.288E3,1.0835E4,1.6779E4,3.11E3,7.334E3,7.25E2,3.247E3,2.6546E4,2.1328E4,3.893E3,1.747E3,9.9E1,4.1E1,3.256E3,1.5351E4,2.1068E4,3.9501E4,5.584E3,2.954E3,1.354E3,5.256E3,3.163E3,1.805E3,9.221E3,1.167E3,3.6442E4,6.355E3,3.159E3,2.648E3,8.749E3,2.943E3,9.055E3,5.807E3,3.6617E4,1.5574E4,1.474E3,1.033E4,3.3965E4,6.329E3,1.229E3,3.012E3,1.2168E4,2.299E3,4.377E3,1.4864E4,3.5269E4,7.415E3,2.894E3,3.556E3,5.566E3,3.609E3,9.43E2,1.327E3,1.0419E4,3.656E3,2.799E4,7.5E3,1.789E3,7.166E3,1.1222E4,3.5076E4,3.858E3,1.2251E4,7.43E2,5.9E1,1.861E3,2.399E3,3.08E2,3.29E3,2.969E4,6.641E3,7.8E1,4.749E3,9.58E2,8.391E3,5.232E3,3.5319E4,2.621E3,3.57E2,7.28E2,2.239E3,5.788E3,1.879E3,3.1937E4,3.83E3,2.53E2,2.189E3,2.292E3,1.71E2,5.245E3,1.409E3,2.369E3,2.1851E4,1.741E3,3.925E3,3.89E2,9.3E1,2.243E3,1.396E3,2.853E3,5.915E3,3.057E3,2.53E2,2.851E3,6.54E2,6.09E2,6.39E2,9.05E2,7.67E3,3.175E3,2.816E3,1.82E2,6.899E3,1.616E3,4.08E2],"tree_param":{"num_deleted":"0","num_feature":"11","num_nodes":"255","size_leaf_vector":"1"}},{"base_weights":[-4.2553106E-3,-4.0060863E1,4.7508335E1,-7.078782E1,-2.1095682E1,2.556237E1,8.255517E1,-1.0150205E2,-6.080716E1,-3.4429108E1,-1.0491146E1,1.426689E1,3.969877E1,6.866573E1,1.0770767E2,-1.4187541E2,-9.4119316E1,-7.109597E1,-5.4590534E1,-2.1239912E1,-3.736332E1,-1.8339909E1,-4.877513E0,9.113432E0,2.1253067E1,3.2274357E1,4.5459587E1,6.1080357E1,7.7996864E1,9.549137E1,1.19914604E2,-1.17363144E2,-1.5974753E2,-7.6536476E1,-9.876767E1,-5.5688953E1,-7.444847E1,-3.8963993E1,-5.8085934E1,-2.871338E1,-1.661929E1,-4.2957138E1,-3.181463E1,-1.4707886E1,-2.8403381E1,6.427789E0,-7.1824617E0,1.2600347E1,-7.351393E-1,2.3066475E1,2.7920954E0,2.9058456E1,4.3661335E1,4.84942E1,3.3183395E1,5.0789345E1,6.553138E1,6.317093E1,8.033938E1,9.901648E1,8.019342E1,1.2340024E2,1.0949129E2,-1.2883072E2,-1.1074238E2,-1.2714606E2,-1.7237195E2,-9.2201546E1,-7.3369385E1,-1.05263374E2,-9.082853E1,-6.3518867E1,-5.107518E1,-8.166636E1,-7.019172E1,-4.8124165E1,-3.3301815E1,-6.991522E1,-5.515144E1,-3.5743595E1,-2.2942936E1,-2.124538E1,-9.942767E0,-4.4696793E1,-3.0582058E1,-3.373081E1,-1.495525E1,-2.384424E1,-1.2030838E1,-3.556704E1,-2.5403446E1,-1.0993204E0,1.1046808E1,-1.5794028E1,-4.8663836E0,4.998766E0,1.638468E1,-7.0069733E0,3.6007922E0,7.386664E0,2.5677166E1,2.1401863E1,-1.8136191E0,3.185748E1,1.790499E1,2.59151E1,4.965708E1,3.3181324E1,5.0657E1,2.064913E1,3.5165443E1,4.3275135E1,5.80598E1,7.0337296E1,5.095352E1,5.8701828E1,7.460162E1,8.32211E1,6.198346E1,1.0228454E2,8.465629E1,5.2460945E1,8.242257E1,1.1462005E2,1.2881522E2,1.06827415E2,1.3447894E2,-2.2980513E1,-2.7426151E1,-2.280168E1,-1.5344289E1,-1.7911383E1,-2.678418E1,-3.6555275E1,-3.097441E1,2.7948444E1,-1.8497358E1,-1.5648827E1,-1.3225435E1,-2.1368244E1,-1.6875624E1,-1.9990505E1,-1.7384249E1,-1.4464732E1,-1.1752556E1,-1.17393E1,-9.2037E0,-1.4553492E1,-1.6954E1,-1.1534966E1,-1.515466E1,-1.0181538E1,-7.326834E0,-7.4578753E0,-4.412282E0,-1.31509495E1,-1.6032257E1,2.271674E0,-1.1105895E1,-5.375002E0,-7.966398E0,-5.2626686E0,-2.920363E0,-6.6845713E0,-3.6890678E0,-4.248638E0,-1.4510791E0,-8.020659E0,-9.982826E0,-9.001711E0,-4.2105737E0,-5.420156E0,-7.6480203E0,-5.5160804E0,5.2826962E0,-6.411454E0,-3.9618452E0,-2.0953238E0,-6.538381E0,1.9172102E1,-7.2120194E0,-5.7884874E0,-3.281262E0,-9.5234025E-1,8.720358E-1,1.4773775E0,4.51391E0,-2.857764E0,-9.457818E0,-3.3649662E-1,-2.4743242E0,-2.0396295E-1,2.600285E0,4.1401563E0,1.6503824E0,-4.2264357E0,-8.7195283E-1,2.1247509E0,-5.5338156E-1,1.1454018E0,1.3986742E1,7.9170775E-1,5.4554386E0,7.548755E0,1.6970938E0,2.8331158E-1,-3.5876787E0,4.803787E0,7.2261033E0,3.0463245E0,6.1165643E0,1.3108444E1,3.430034E0,1.0489238E1,3.0173128E0,5.530308E0,8.553424E0,8.452761E0,1.1091881E1,1.5089218E1,3.584107E0,5.463401E0,7.8332887E0,1.47167E1,8.127932E0,1.4115033E1,9.449935E0,1.0152801E1,1.5073005E1,1.1187877E1,7.372131E0,7.1198096E0,1.2211551E1,3.2724686E0,1.5333034E1,1.4233124E1,1.783821E1,9.377672E0,1.3264892E1,1.6909285E1,2.0804556E1,1.7865475E1,1.2260003E1,1.8357681E0,1.1530652E1,1.683499E1,8.789223E0,2.3774092E1,1.9460012E1,2.884671E1,2.5562876E1,2.221761E1,1.5922803E1,-4.0582E1,2.706178E1],"categories":[],"categories_nodes":[],"categories_segments":[],"categories_sizes":[],"default_left":[0,0,0,0,0,0,0,0,0,0,0,0,0,0,0,0,0,0,0,0,0,0,0,0,0,0,0,0,0,0,0,0,0,0,0,0,0,0,0,0,0,0,0,0,0,0,0,0,0,0,0,0,0,0,0,0,0,0,0,0,0,0,0,0,0,0,0,0,0,0,0,0,0,0,0,0,0,0,0,0,0,0,0,0,0,0,0,0,0,0,0,0,0,0,0,0,0,0,0,0,0,0,0,0,0,0,0,0,0,0,0,0,0,0,0,0,0,0,0,0,0,0,0,0,0,0,0,0,0,0,0,0,0,0,0,0,0,0,0,0,0,0,0,0,0,0,0,0,0,0,0,0,0,0,0,0,0,0,0,0,0,0,0,0,0,0,0,0,0,0,0,0,0,0,0,0,0,0,0,0,0,0,0,0,0,0,0,0,0,0,0,0,0,0,0,0,0,0,0,0,0,0,0,0,0,0,0,0,0,0,0,0,0,0,0,0,0,0,0,0,0,0,0,0,0,0,0,0,0,0,0,0,0,0,0,0,0,0,0,0,0,0,0,0,0,0,0,0,0,0,0,0,0,0,0],"id":2,"left_children":[1,3,5,7,9,11,13,15,17,19,21,23,25,27,29,31,33,35,37,39,41,43,45,47,49,51,53,55,57,59,61,63,65,67,69,71,73,75,77,79,81,83,85,87,89,91,93,95,97,99,101,103,105,107,109,111,113,115,117,119,121,123,125,127,129,131,133,135,137,139,141,143,145,147,149,151,153,155,157,159,161,163,165,167,169,171,173,175,177,179,181,183,185,187,189,191,193,195,197,199,201,203,205,207,209,211,213,215,217,219,221,223,225,227,229,231,233,235,237,239,241,243,245,247,249,251,253,-1,-1,-1,-1,-1,-1,-1,-1,-1,-1,-1,-1,-1,-1,-1,-1,-1,-1,-1,-1,-1,-1,-1,-1,-1,-1,-1,-1,-1,-1,-1,-1,-1,-1,-1,-1,-1,-1,-1,-1,-1,-1,-1,-1,-1,-1,-1,-1,-1,-1,-1,-1,-1,-1,-1,-1,-1,-1,-1,-1,-1,-1,-1,-1,-1,-1,-1,-1,-1,-1,-1,-1,-1,-1,-1,-1,-1,-1,-1,-1,-1,-1,-1,-1,-1,-1,-1,-1,-1,-1,-1,-1,-1,-1,-1,-1,-1,-1,-1,-1,-1,-1,-1,-1,-1,-1,-1,-1,-1,-1,-1,-1,-1,-1,-1,-1,-1,-1,-1,-1,-1,-1,-1,-1,-1,-1,-1,-1],"loss_changes":[1.6477047E9,2.7373363E8,3.0459302E8,5.4950656E7,4.106932E7,3.888552E7,5.3266944E7,1.3091712E7,8.650752E6,4.978864E6,7.128302E6,4.873454E6,4.624688E6,6.949088E6,8.0784E6,2.958048E6,3.030624E6,2.628064E6,4.605056E6,8.0823E5,3.2656E6,2.465404E6,2.4580062E6,2.67532E6,1.923708E6,1.729404E6,2.2672E6,2.479184E6,1.524768E6,1.454512E6,9.72192E5,2.0356E5,1.594328E6,3.79076E5,1.506432E6,3.25894E5,1.28008E6,7.98284E5,2.388912E6,3.620965E5,4.468355E5,1.126984E6,1.706684E6,1.212217E6,3.83562E5,5.554287E5,1.5626582E6,1.654994E6,5.539991E5,2.141742E6,4.406805E5,1.150028E6,1.105932E6,1.61548E6,2.99234E5,8.917E5,2.646784E6,3.02894E5,2.006832E6,1.025472E6,3.09966E5,9.51552E5,4.38808E5,1.04932E5,1.94148E5,2.68132E5,4.86608E5,9.9201E4,2.23384E5,5.23584E5,4.63184E5,1.37041E5,2.18434E5,4.22448E5,1.835296E6,1.86481E5,4.26509E5,5.78608E5,1.389392E6,1.450865E5,1.37819E5,2.9088225E5,1.7980919E5,1.099224E6,8.8754E5,1.417596E6,2.8184645E6,3.716235E5,1.230889E6,3.45478E5,4.011325E5,1.2150896E5,4.1733925E5,7.865585E5,1.4754812E6,9.211139E5,1.348127E6,3.1127416E5,5.386831E5,7.7503394E5,1.558656E6,2.1497988E5,2.1472338E5,9.8591E5,2.5020325E5,9.12351E5,7.49072E5,3.193005E5,1.722168E6,2.4550362E5,3.26261E5,6.4026E5,1.12176E6,2.795728E6,6.57236E5,2.33447E5,2.01488E5,2.359456E6,3.35342E5,5.44544E5,4.40852E5,8.5094625E4,3.13468E5,5.59848E5,1.75408E5,7.05032E5,2.10026E5,0E0,0E0,0E0,0E0,0E0,0E0,0E0,0E0,0E0,0E0,0E0,0E0,0E0,0E0,0E0,0E0,0E0,0E0,0E0,0E0,0E0,0E0,0E0,0E0,0E0,0E0,0E0,0E0,0E0,0E0,0E0,0E0,0E0,0E0,0E0,0E0,0E0,0E0,0E0,0E0,0E0,0E0,0E0,0E0,0E0,0E0,0E0,0E0,0E0,0E0,0E0,0E0,0E0,0E0,0E0,0E0,0E0,0E0,0E0,0E0,0E0,0E0,0E0,0E0,0E0,0E0,0E0,0E0,0E0,0E0,0E0,0E0,0E0,0E0,0E0,0E0,0E0,0E0,0E0,0E0,0E0,0E0,0E0,0E0,0E0,0E0,0E0,0E0,0E0,0E0,0E0,0E0,0E0,0E0,0E0,0E0,0E0,0E0,0E0,0E0,0E0,0E0,0E0,0E0,0E0,0E0,0E0,0E0,0E0,0E0,0E0,0E0,0E0,0E0,0E0,0E0,0E0,0E0,0E0,0E0,0E0,0E0,0E0,0E0,0E0,0E0,0E0,0E0],"parents":[2147483647,0,0,1,1,2,2,3,3,4,4,5,5,6,6,7,7,8,8,9,9,10,10,11,11,12,12,13,13,14,14,15,15,16,16,17,17,18,18,19,19,20,20,21,21,22,22,23,23,24,24,25,25,26,26,27,27,28,28,29,29,30,30,31,31,32,32,33,33,34,34,35,35,36,36,37,37,38,38,39,39,40,40,41,41,42,42,43,43,44,44,45,45,46,46,47,47,48,48,49,49,50,50,51,51,52,52,53,53,54,54,55,55,56,56,57,57,58,58,59,59,60,60,61,61,62,62,63,63,64,64,65,65,66,66,67,67,68,68,69,69,70,70,71,71,72,72,73,73,74,74,75,75,76,76,77,77,78,78,79,79,80,80,81,81,82,82,83,83,84,84,85,85,86,86,87,87,88,88,89,89,90,90,91,91,92,92,93,93,94,94,95,95,96,96,97,97,98,98,99,99,100,100,101,101,102,102,103,103,104,104,105,105,106,106,107,107,108,108,109,109,110,110,111,111,112,112,113,113,114,114,115,115,116,116,117,117,118,118,119,119,120,120,121,121,122,122,123,123,124,124,125,125,126,126],"right_children":[2,4,6,8,10,12,14,16,18,20,22,24,26,28,30,32,34,36,38,40,42,44,46,48,50,52,54,56,58,60,62,64,66,68,70,72,74,76,78,80,82,84,86,88,90,92,94,96,98,100,102,104,106,108,110,112,114,116,118,120,122,124,126,128,130,132,134,136,138,140,142,144,146,148,150,152,154,156,158,160,162,164,166,168,170,172,174,176,178,180,182,184,186,188,190,192,194,196,198,200,202,204,206,208,210,212,214,216,218,220,222,224,226,228,230,232,234,236,238,240,242,244,246,248,250,252,254,-1,-1,-1,-1,-1,-1,-1,-1,-1,-1,-1,-1,-1,-1,-1,-1,-1,-1,-1,-1,-1,-1,-1,-1,-1,-1,-1,-1,-1,-1,-1,-1,-1,-1,-1,-1,-1,-1,-1,-1,-1,-1,-1,-1,-1,-1,-1,-1,-1,-1,-1,-1,-1,-1,-1,-1,-1,-1,-1,-1,-1,-1,-1,-1,-1,-1,-1,-1,-1,-1,-1,-1,-1,-1,-1,-1,-1,-1,-1,-1,-1,-1,-1,-1,-1,-1,-1,-1,-1,-1,-1,-1,-1,-1,-1,-1,-1,-1,-1,-1,-1,-1,-1,-1,-1,-1,-1,-1,-1,-1,-1,-1,-1,-1,-1,-1,-1,-1,-1,-1,-1,-1,-1,-1,-1,-1,-1,-1],"split_conditions":[1.7769069E3,9.074306E2,2.8169915E3,3.8754184E2,1.3019805E3,2.2606006E3,3.7450496E3,1.10760895E2,6.158884E2,7E0,1.4946555E3,2.0380361E3,2.476845E3,3.2190342E3,4.377427E3,2E0,8E0,7E0,7E0,2E0,1.1032336E3,1.9E1,7E0,1.9E1,7.564771E-2,2.6E1,2E1,5.146707E1,-3.1373572E-1,2E1,4E0,6.528381E1,3E0,1.8185773E2,2.9135806E2,2E0,5.149453E1,2E0,5.1467514E1,1.0826903E3,1E0,3.2E1,3.2E1,5.1473766E1,5.1483574E1,2E0,5.1464897E1,5.1483574E1,5.1495247E1,-2.9821628E-1,8E0,2E1,-1.8984014E-1,-3.3021173E-1,-3.038192E-1,-1.04219414E-1,-1.3893713E-2,3.547004E3,8.890835E-2,5.730034E-2,-3.866631E-1,4.7889897E3,1.8243001E-1,3E0,3.2E1,7E0,4E0,2E0,1E0,3.2E1,5.1474407E1,5.149453E1,4.8745453E2,5.1415287E1,5.151558E1,8.5366187E2,2E0,5.146071E1,-4.5237952E-1,1.2E1,2E0,5.146707E1,9.8412775E2,1.9E1,6.3E1,1.3E1,6.7E1,2.9E1,9.086586E-2,-4.3884417E-1,7.5E1,6.5E1,2E0,5.1473793E1,5.155484E1,2.2E1,5.155484E1,-2.41484E-1,5.1540695E1,9E1,5.139101E1,5.1540695E1,7.1E1,5.1485832E1,8.3E1,6.1E1,-4.292903E-3,4.2E1,5.1488636E1,-4.5237952E-1,5.1487366E1,5.136914E1,-2.8701644E-2,-3.065205E-1,7.1E1,2.1E1,1.4E1,5.146707E1,1.13640495E-1,-3.6621043E-1,7.5E1,5.146938E1,5.1630558E1,3.208245E-2,-4.512229E-1,6.1919854E3,5.1385963E1,-2.2980513E1,-2.7426151E1,-2.280168E1,-1.5344289E1,-1.7911383E1,-2.678418E1,-3.6555275E1,-3.097441E1,2.7948444E1,-1.8497358E1,-1.5648827E1,-1.3225435E1,-2.1368244E1,-1.6875624E1,-1.9990505E1,-1.7384249E1,-1.4464732E1,-1.1752556E1,-1.17393E1,-9.2037E0,-1.4553492E1,-1.6954E1,-1.1534966E1,-1.515466E1,-1.0181538E1,-7.326834E0,-7.4578753E0,-4.412282E0,-1.31509495E1,-1.6032257E1,2.271674E0,-1.1105895E1,-5.375002E0,-7.966398E0,-5.2626686E0,-2.920363E0,-6.6845713E0,-3.6890678E0,-4.248638E0,-1.4510791E0,-8.020659E0,-9.982826E0,-9.001711E0,-4.2105737E0,-5.420156E0,-7.6480203E0,-5.5160804E0,5.2826962E0,-6.411454E0,-3.9618452E0,-2.0953238E0,-6.538381E0,1.9172102E1,-7.2120194E0,-5.7884874E0,-3.281262E0,-9.5234025E-1,8.720358E-1,1.4773775E0,4.51391E0,-2.857764E0,-9.457818E0,-3.3649662E-1,-2.4743242E0,-2.0396295E-1,2.600285E0,4.1401563E0,1.6503824E0,-4.2264357E0,-8.7195283E-1,2.1247509E0,-5.5338156E-1,1.1454018E0,1.3986742E1,7.9170775E-1,5.4554386E0,7.548755E0,1.6970938E0,2.8331158E-1,-3.5876787E0,4.803787E0,7.2261033E0,3.0463245E0,6.1165643E0,1.3108444E1,3.430034E0,1.0489238E1,3.0173128E0,5.530308E0,8.553424E0,8.452761E0,1.1091881E1,1.5089218E1,3.584107E0,5.463401E0,7.8332887E0,1.47167E1,8.127932E0,1.4115033E1,9.449935E0,1.0152801E1,1.5073005E1,1.1187877E1,7.372131E0,7.1198096E0,1.2211551E1,3.2724686E0,1.5333034E1,1.4233124E1,1.783821E1,9.377672E0,1.3264892E1,1.6909285E1,2.0804556E1,1.7865475E1,1.2260003E1,1.8357681E0,1.1530652E1,1.683499E1,8.789223E0,2.3774092E1,1.9460012E1,2.884671E1,2.5562876E1,2.221761E1,1.5922803E1,-4.0582E1,2.706178E1],"split_indices":[10,10,10,10,10,10,10,10,10,0,10,10,10,10,10,1,0,0,0,0,10,0,0,0,7,4,0,8,9,0,3,10,3,10,10,0,8,0,8,10,1,4,4,8,6,0,8,6,6,7,0,0,9,7,9,7,9,10,7,9,7,10,7,3,4,0,3,3,1,4,6,8,10,6,6,10,1,8,9,4,1,8,10,4,5,4,5,2,9,7,5,5,1,6,8,4,8,7,6,5,6,6,5,6,5,5,7,2,6,9,6,8,9,9,5,2,2,8,7,9,2,6,8,9,7,10,8,0,0,0,0,0,0,0,0,0,0,0,0,0,0,0,0,0,0,0,0,0,0,0,0,0,0,0,0,0,0,0,0,0,0,0,0,0,0,0,0,0,0,0,0,0,0,0,0,0,0,0,0,0,0,0,0,0,0,0,0,0,0,0,0,0,0,0,0,0,0,0,0,0,0,0,0,0,0,0,0,0,0,0,0,0,0,0,0,0,0,0,0,0,0,0,0,0,0,0,0,0,0,0,0,0,0,0,0,0,0,0,0,0,0,0,0,0,0,0,0,0,0,0,0,0,0,0,0],"split_type":[0,0,0,0,0,0,0,0,0,0,0,0,0,0,0,0,0,0,0,0,0,0,0,0,0,0,0,0,0,0,0,0,0,0,0,0,0,0,0,0,0,0,0,0,0,0,0,0,0,0,0,0,0,0,0,0,0,0,0,0,0,0,0,0,0,0,0,0,0,0,0,0,0,0,0,0,0,0,0,0,0,0,0,0,0,0,0,0,0,0,0,0,0,0,0,0,0,0,0,0,0,0,0,0,0,0,0,0,0,0,0,0,0,0,0,0,0,0,0,0,0,0,0,0,0,0,0,0,0,0,0,0,0,0,0,0,0,0,0,0,0,0,0,0,0,0,0,0,0,0,0,0,0,0,0,0,0,0,0,0,0,0,0,0,0,0,0,0,0,0,0,0,0,0,0,0,0,0,0,0,0,0,0,0,0,0,0,0,0,0,0,0,0,0,0,0,0,0,0,0,0,0,0,0,0,0,0,0,0,0,0,0,0,0,0,0,0,0,0,0,0,0,0,0,0,0,0,0,0,0,0,0,0,0,0,0,0,0,0,0,0,0,0,0,0,0,0,0,0,0,0,0,0,0,0],"sum_hessian":[8.65756E5,4.69735E5,3.96021E5,1.79275E5,2.9046E5,2.43528E5,1.52493E5,4.3966E4,1.35309E5,1.28673E5,1.61787E5,1.35367E5,1.08161E5,9.8245E4,5.4248E4,6.794E3,3.7172E4,5.0959E4,8.435E4,2.3418E4,1.05255E5,6.7462E4,9.4325E4,7.7903E4,5.7464E4,4.726E4,6.0901E4,5.4196E4,4.4049E4,2.7118E4,2.713E4,2.868E3,3.926E3,7.776E3,2.9396E4,9.11E3,4.1849E4,1.5421E4,6.8929E4,8.945E3,1.4473E4,5.2411E4,5.2844E4,4.9573E4,1.7889E4,1.5974E4,7.8351E4,5.7533E4,2.037E4,5.2324E4,5.14E3,3.6855E4,1.0405E4,4.8828E4,1.2073E4,1.6367E4,3.7829E4,6.014E3,3.8035E4,2.2035E4,5.083E3,2.0323E4,6.807E3,1.043E3,1.825E3,1.099E3,2.827E3,1.303E3,6.473E3,1.6161E4,1.3235E4,3.373E3,5.737E3,1.5518E4,2.6331E4,5.888E3,9.533E3,1.3696E4,5.5233E4,4.03E3,4.915E3,8.548E3,5.925E3,4.5949E4,6.462E3,4.745E4,5.394E3,1.1232E4,3.8341E4,5.277E3,1.2612E4,6.075E3,9.899E3,1.6605E4,6.1746E4,1.9123E4,3.841E4,8.326E3,1.2044E4,7.469E3,4.4855E4,1.019E3,4.121E3,2.946E4,7.395E3,2.629E3,7.776E3,6.045E3,4.2783E4,1.65E3,1.0423E4,8.052E3,8.315E3,2.8447E4,9.382E3,4.328E3,1.686E3,3.2871E4,5.164E3,1.7945E4,4.09E3,3.8E2,4.703E3,7.761E3,1.2562E4,6.156E3,6.51E2,3.95E2,6.48E2,1.663E3,1.62E2,1.7E2,9.29E2,1.767E3,1.06E3,1E0,1.302E3,3.863E3,2.61E3,1.5022E4,1.139E3,3.961E3,9.274E3,1.178E3,2.195E3,2.284E3,3.453E3,4.019E3,1.1499E4,8.124E3,1.8207E4,4.737E3,1.151E3,7.035E3,2.498E3,9.746E3,3.95E3,3.12E2,5.4921E4,1.274E3,2.756E3,3.499E3,1.416E3,1.596E3,6.952E3,1.137E3,4.788E3,2.444E4,2.1509E4,2.569E3,3.893E3,1.9211E4,2.8239E4,4.133E3,1.261E3,3.698E3,7.534E3,3.566E4,2.681E3,1.9E1,5.258E3,9.05E3,3.562E3,3.636E3,2.439E3,7.514E3,2.385E3,1.5849E4,7.56E2,4.3355E4,1.8391E4,1.0915E4,8.208E3,2.5092E4,1.3318E4,1.313E3,7.013E3,5.727E3,6.317E3,7.277E3,1.92E2,3.078E3,4.1777E4,4.49E2,5.7E2,3.434E3,6.87E2,1.0396E4,1.9064E4,6.109E3,1.286E3,4.75E2,2.154E3,7.195E3,5.81E2,3.836E3,2.209E3,1.5574E4,2.7209E4,7.7E1,1.573E3,3.522E3,6.901E3,6.42E2,7.41E3,3.851E3,4.464E3,5.816E3,2.2631E4,6.928E3,2.454E3,4.02E2,3.926E3,5.8E1,1.628E3,1.0891E4,2.198E4,1.156E3,4.008E3,1.606E3,1.6339E4,3.406E3,6.84E2,4.1E1,3.39E2,4.497E3,2.06E2,6.227E3,1.534E3,7.57E2,1.1805E4,5.32E3,8.36E2,1E0,6.5E2],"tree_param":{"num_deleted":"0","num_feature":"11","num_nodes":"255","size_leaf_vector":"1"}},{"base_weights":[-5.7390414E-2,-3.3367226E1,3.6541767E1,-5.882991E1,-1.9104244E1,1.9226616E1,6.62445E1,-8.2586395E1,-5.0968903E1,-2.9947287E1,-1.0501425E1,9.80606E0,3.1160913E1,5.6366737E1,8.8117714E1,-1.2808362E2,-7.840887E1,-6.2957817E1,-4.7545807E1,-2.6890648E1,-3.8554905E1,-1.618996E1,-6.410626E0,1.2413864E1,-6.387604E-1,2.5128124E1,3.6517807E1,4.9126293E1,6.411212E1,8.1707954E1,9.972618E1,-1.0334484E2,-1.3897186E2,-9.1996666E1,-7.333792E1,-4.93668E1,-6.593405E1,-3.458628E1,-5.042396E1,-3.3015736E1,-2.2886473E1,-4.3016705E1,-3.4532295E1,-1.3158699E1,-2.4732515E1,-4.1871333E0,-1.526299E1,7.0527472E0,1.7520954E1,-3.0859745E0,7.634548E0,2.7985762E1,1.54291525E1,3.9018005E1,2.6411503E1,4.740263E1,7.240846E1,6.70567E1,5.1819542E1,7.514219E1,8.695116E1,1.0258242E2,8.785615E1,-1.163223E2,-9.408807E1,-1.0010228E2,-1.4262637E2,-7.009205E1,-9.644306E1,-6.00839E1,-7.690816E1,-5.3868504E1,-4.2704445E1,-6.7092995E1,-5.292298E1,-4.5796387E1,-3.1802704E1,-5.7389187E1,-4.6512444E1,3.944402E1,-3.3352783E1,-3.259373E1,-2.0603334E1,-4.5550457E1,-3.6358418E1,-4.381599E1,-3.2431805E1,-1.4560587E1,2.574308E0,-3.1064625E1,-2.194621E1,3.2463124E0,-6.207769E0,-2.1060928E1,-1.1313201E1,8.159118E0,-1.2275795E1,1.8917614E1,-1.4479345E0,-5.465677E0,5.1506886E0,6.423174E0,3.3397377E1,1.0280681E1,3.0916142E1,1.8094547E1,2.0946562E0,1.7892965E1,4.02549E1,1.9577087E1,2.8936527E1,4.9355602E1,2.9453651E1,4.9530106E1,8.114244E1,6.892327E1,5.3068558E1,5.3292595E1,3.3579826E1,8.050804E1,6.606972E1,9.062715E1,7.713231E1,1.3133513E2,1.01887535E2,9.571757E1,6.554063E1,3.5756072E-1,-2.3320356E1,-2.8928854E0,-1.9157263E1,-1.3731348E1,-2.4324942E1,-2.4729391E1,-2.9314539E1,-1.861534E1,-1.2878258E1,-1.791605E1,-2.1340672E1,-1.3632632E1,-1.1257099E1,-1.106346E1,-1.5568476E1,-1.115287E1,-7.5471864E0,-1.1226887E1,-7.693486E0,-1.2667586E1,-1.4397433E1,-9.870032E0,-1.5310884E1,-1.0121461E1,-8.022611E0,1.08543625E1,-6.442501E0,-1.2424661E1,-1.02905445E1,-7.602758E0,-1.0055583E1,1.0767924E1,-1.4818817E1,-7.9508853E0,-5.906917E0,-6.0346828E0,-1.0577266E1,-3.2011693E0,-4.949281E0,-9.512694E0,-7.0129676E0,-6.2320843E0,-9.815285E0,-1.0448157E1,-8.109659E0,-2.8784034E0,-6.677331E0,-1.5642328E0,-3.3507059E0,-2.5961034E0,7.9792E0,-6.099758E0,-1.9898619E1,-5.1014104E0,-2.6185539E0,-8.886327E-1,1.5877829E0,-1.5145661E0,2.0141249E0,-4.79658E0,-1.8783346E0,6.575329E-1,-2.919552E0,-2.025014E-1,2.1960578E0,1.3485632E0,-3.627725E0,1.0419706E0,4.1954403E0,2.956602E0,-1.3152102E0,-1.586846E-1,-1.9329423E0,-7.436268E-1,1.8738168E0,9.911032E-1,4.50939E0,-2.0060208E-1,8.23752E0,9.849288E0,1.6783737E0,3.9757657E0,7.4534197E0,4.1946316E0,1.3251678E0,5.755058E0,-5.453741E-1,2.2353592E0,9.757847E0,8.392269E0,4.536903E0,4.8366013E0,1.7251056E0,6.407824E0,3.0945177E0,1.0464207E1,8.118115E0,9.591196E0,4.9839234E0,6.586017E0,1.155645E1,1.8132278E1,9.649826E0,1.0295221E1,1.418246E1,6.2031827E0,1.1177681E1,8.654904E0,1.1556976E1,6.140232E0,1.5180925E1,1.6445177E1,1.0023486E1,6.898771E0,1.350398E1,1.7128584E1,2.0482933E1,1.4769084E1,2.0279463E1,2.7571608E1,-9.080007E0,2.0151281E1,2.275535E1,1.1055812E1,1.9441267E1,8.054361E0,2.1432812E1],"categories":[],"categories_nodes":[],"categories_segments":[],"categories_sizes":[],"default_left":[0,0,0,0,0,0,0,0,0,0,0,0,0,0,0,0,0,0,0,0,0,0,0,0,0,0,0,0,0,0,0,0,0,0,0,0,0,0,0,0,0,0,0,0,0,0,0,0,0,0,0,0,0,0,0,0,0,0,0,0,0,0,0,0,0,0,0,0,0,0,0,0,0,0,0,0,0,0,0,0,0,0,0,0,0,0,0,0,0,0,0,0,0,0,0,0,0,0,0,0,0,0,0,0,0,0,0,0,0,0,0,0,0,0,0,0,0,0,0,0,0,0,0,0,0,0,0,0,0,0,0,0,0,0,0,0,0,0,0,0,0,0,0,0,0,0,0,0,0,0,0,0,0,0,0,0,0,0,0,0,0,0,0,0,0,0,0,0,0,0,0,0,0,0,0,0,0,0,0,0,0,0,0,0,0,0,0,0,0,0,0,0,0,0,0,0,0,0,0,0,0,0,0,0,0,0,0,0,0,0,0,0,0,0,0,0,0,0,0,0,0,0,0,0,0,0,0,0,0,0,0,0,0,0,0,0,0,0,0,0,0,0,0,0,0,0,0,0,0,0,0,0,0,0,0],"id":3,"left_children":[1,3,5,7,9,11,13,15,17,19,21,23,25,27,29,31,33,35,37,39,41,43,45,47,49,51,53,55,57,59,61,63,65,67,69,71,73,75,77,79,81,83,85,87,89,91,93,95,97,99,101,103,105,107,109,111,113,115,117,119,121,123,125,127,129,131,133,135,137,139,141,143,145,147,149,151,153,155,157,159,161,163,165,167,169,171,173,175,177,179,181,183,185,187,189,191,193,195,197,199,201,203,205,207,209,211,213,215,217,219,221,223,225,227,229,231,233,235,237,239,241,243,245,247,249,251,253,-1,-1,-1,-1,-1,-1,-1,-1,-1,-1,-1,-1,-1,-1,-1,-1,-1,-1,-1,-1,-1,-1,-1,-1,-1,-1,-1,-1,-1,-1,-1,-1,-1,-1,-1,-1,-1,-1,-1,-1,-1,-1,-1,-1,-1,-1,-1,-1,-1,-1,-1,-1,-1,-1,-1,-1,-1,-1,-1,-1,-1,-1,-1,-1,-1,-1,-1,-1,-1,-1,-1,-1,-1,-1,-1,-1,-1,-1,-1,-1,-1,-1,-1,-1,-1,-1,-1,-1,-1,-1,-1,-1,-1,-1,-1,-1,-1,-1,-1,-1,-1,-1,-1,-1,-1,-1,-1,-1,-1,-1,-1,-1,-1,-1,-1,-1,-1,-1,-1,-1,-1,-1,-1,-1,-1,-1,-1,-1],"loss_changes":[1.05519136E9,1.6456483E8,2.121031E8,3.0378368E7,2.7092424E7,2.9290824E7,3.2809152E7,7.677728E6,5.013792E6,3.379616E6,3.768648E6,3.965922E6,3.713336E6,5.86448E6,3.507392E6,9.01472E5,2.546048E6,1.094888E6,3.545328E6,2.324864E6,6.02808E5,1.753938E6,1.8542478E6,3.189942E6,5.890161E5,1.49788E6,1.53712E6,2.166912E6,1.826224E6,1.041552E6,5.60656E5,1.1435E5,3.20672E5,9.73536E5,1.272304E6,1.4409E5,3.32224E5,5.37908E5,2.117312E6,9.16724E5,1.2702E6,2.67578E5,3.4395E5,1.102944E6,3.12344E5,1.1310025E6,4.328585E5,1.215682E6,1.580842E6,4.400859E5,2.0704066E5,2.166038E6,4.3730275E5,1.274368E6,2.0783E5,1.76376E6,7.40506E5,1.061008E6,2.60792E5,6.53096E5,6.0376E5,2.5712E5,5.66686E5,1.44025E4,8.16395E4,1.31067375E5,1.43136E5,2.17019E5,5.79392E5,1.72036E5,4.24424E5,8.6867E4,1.101105E5,3.71144E5,1.50393E5,9.1917E4,4.90286E5,7.8312E5,1.592888E6,2.8838338E5,9.10756E5,5.34588E5,8.83914E5,2.42254E5,2.896105E5,8.7766E4,2.48373E5,6.78439E5,2.3760562E6,2.067845E5,3.88189E5,5.807655E5,1.3156485E6,2.610275E5,5.396166E5,1.391217E6,3.433281E5,1.56896E6,3.4077472E5,3.417349E5,1.8833044E5,1.500139E5,7.990134E4,4.361023E5,2.510504E6,3.38419E5,2.6392194E5,5.5992456E5,1.381224E6,1.6428262E5,3.67776E5,1.178272E6,4.135585E5,1.3946675E5,8.39458E5,1.244736E6,2.97066E5,4.04382E5,8.69775E4,4.3932E5,2.28092E5,7.14232E5,3.60668E5,3.705525E5,1.66352E5,1.39898E5,8.9390025E5,0E0,0E0,0E0,0E0,0E0,0E0,0E0,0E0,0E0,0E0,0E0,0E0,0E0,0E0,0E0,0E0,0E0,0E0,0E0,0E0,0E0,0E0,0E0,0E0,0E0,0E0,0E0,0E0,0E0,0E0,0E0,0E0,0E0,0E0,0E0,0E0,0E0,0E0,0E0,0E0,0E0,0E0,0E0,0E0,0E0,0E0,0E0,0E0,0E0,0E0,0E0,0E0,0E0,0E0,0E0,0E0,0E0,0E0,0E0,0E0,0E0,0E0,0E0,0E0,0E0,0E0,0E0,0E0,0E0,0E0,0E0,0E0,0E0,0E0,0E0,0E0,0E0,0E0,0E0,0E0,0E0,0E0,0E0,0E0,0E0,0E0,0E0,0E0,0E0,0E0,0E0,0E0,0E0,0E0,0E0,0E0,0E0,0E0,0E0,0E0,0E0,0E0,0E0,0E0,0E0,0E0,0E0,0E0,0E0,0E0,0E0,0E0,0E0,0E0,0E0,0E0,0E0,0E0,0E0,0E0,0E0,0E0,0E0,0E0,0E0,0E0,0E0,0E0],"parents":[2147483647,0,0,1,1,2,2,3,3,4,4,5,5,6,6,7,7,8,8,9,9,10,10,11,11,12,12,13,13,14,14,15,15,16,16,17,17,18,18,19,19,20,20,21,21,22,22,23,23,24,24,25,25,26,26,27,27,28,28,29,29,30,30,31,31,32,32,33,33,34,34,35,35,36,36,37,37,38,38,39,39,40,40,41,41,42,42,43,43,44,44,45,45,46,46,47,47,48,48,49,49,50,50,51,51,52,52,53,53,54,54,55,55,56,56,57,57,58,58,59,59,60,60,61,61,62,62,63,63,64,64,65,65,66,66,67,67,68,68,69,69,70,70,71,71,72,72,73,73,74,74,75,75,76,76,77,77,78,78,79,79,80,80,81,81,82,82,83,83,84,84,85,85,86,86,87,87,88,88,89,89,90,90,91,91,92,92,93,93,94,94,95,95,96,96,97,97,98,98,99,99,100,100,101,101,102,102,103,103,104,104,105,105,106,106,107,107,108,108,109,109,110,110,111,111,112,112,113,113,114,114,115,115,116,116,117,117,118,118,119,119,120,120,121,121,122,122,123,123,124,124,125,125,126,126],"right_children":[2,4,6,8,10,12,14,16,18,20,22,24,26,28,30,32,34,36,38,40,42,44,46,48,50,52,54,56,58,60,62,64,66,68,70,72,74,76,78,80,82,84,86,88,90,92,94,96,98,100,102,104,106,108,110,112,114,116,118,120,122,124,126,128,130,132,134,136,138,140,142,144,146,148,150,152,154,156,158,160,162,164,166,168,170,172,174,176,178,180,182,184,186,188,190,192,194,196,198,200,202,204,206,208,210,212,214,216,218,220,222,224,226,228,230,232,234,236,238,240,242,244,246,248,250,252,254,-1,-1,-1,-1,-1,-1,-1,-1,-1,-1,-1,-1,-1,-1,-1,-1,-1,-1,-1,-1,-1,-1,-1,-1,-1,-1,-1,-1,-1,-1,-1,-1,-1,-1,-1,-1,-1,-1,-1,-1,-1,-1,-1,-1,-1,-1,-1,-1,-1,-1,-1,-1,-1,-1,-1,-1,-1,-1,-1,-1,-1,-1,-1,-1,-1,-1,-1,-1,-1,-1,-1,-1,-1,-1,-1,-1,-1,-1,-1,-1,-1,-1,-1,-1,-1,-1,-1,-1,-1,-1,-1,-1,-1,-1,-1,-1,-1,-1,-1,-1,-1,-1,-1,-1,-1,-1,-1,-1,-1,-1,-1,-1,-1,-1,-1,-1,-1,-1,-1,-1,-1,-1,-1,-1,-1,-1,-1,-1],"split_conditions":[1.7227859E3,8.5366187E2,2.8169915E3,3.7195572E2,1.2508964E3,2.235468E3,3.8583862E3,6.528381E1,5.030841E2,1.9E1,1.4467109E3,2E1,2.476845E3,3.2190342E3,4.7889897E3,2E0,1.8185773E2,7E0,7E0,1.013178E3,1.0449208E3,1.9E1,2E1,1.95504E3,2.1012961E3,-1.3893713E-2,2E1,3.2E1,2E1,4.1749253E3,5E0,5.151104E1,7E0,7E0,8E0,1E0,3.2E1,1E0,5.149453E1,-4.5237952E-1,5.1464897E1,2E0,5.1464897E1,3.2E1,5.1484352E1,7E0,5.150065E1,1.09557636E-1,1.09557636E-1,2.7E1,3.2E1,-3.1373572E-1,1.5666899E-1,5.139101E1,5.1473766E1,9.992507E-2,5.1510967E1,8.890835E-2,1.312576E-1,3E0,2.9892582E-2,5.1336998E1,6.1919854E3,2E0,-3.7006494E-1,1.2E1,3E0,1E0,2E0,2E0,5.139101E1,3.2E1,1E0,1.9E1,5.1522655E1,1E0,-4.512229E-1,1E0,5.151514E1,5.1474407E1,5.1496223E1,5.146378E1,5.1521137E1,5E0,3E0,2.7E1,5.1472935E1,7E0,6.7E1,1.767171E-1,7.5E1,2E0,3.2E1,-4.686956E-2,5.151514E1,5.1464897E1,8E0,-2.9821628E-1,8E0,1.2E1,-1.307048E-1,9.3E1,2E1,-4.5237952E-1,5.149035E1,5.154904E1,7E0,8.7E1,9.992507E-2,5.1456593E1,2.0723926E-2,1.9E1,9E0,5.146707E1,5.1527637E1,-3.587482E-1,9.086586E-2,5.146707E1,5.1604347E1,5.1630558E1,5E0,-9.4990954E-2,1.917909E-1,5.139732E1,5.163056E1,-4.3585408E-1,7.1478106E-2,3.5756072E-1,-2.3320356E1,-2.8928854E0,-1.9157263E1,-1.3731348E1,-2.4324942E1,-2.4729391E1,-2.9314539E1,-1.861534E1,-1.2878258E1,-1.791605E1,-2.1340672E1,-1.3632632E1,-1.1257099E1,-1.106346E1,-1.5568476E1,-1.115287E1,-7.5471864E0,-1.1226887E1,-7.693486E0,-1.2667586E1,-1.4397433E1,-9.870032E0,-1.5310884E1,-1.0121461E1,-8.022611E0,1.08543625E1,-6.442501E0,-1.2424661E1,-1.02905445E1,-7.602758E0,-1.0055583E1,1.0767924E1,-1.4818817E1,-7.9508853E0,-5.906917E0,-6.0346828E0,-1.0577266E1,-3.2011693E0,-4.949281E0,-9.512694E0,-7.0129676E0,-6.2320843E0,-9.815285E0,-1.0448157E1,-8.109659E0,-2.8784034E0,-6.677331E0,-1.5642328E0,-3.3507059E0,-2.5961034E0,7.9792E0,-6.099758E0,-1.9898619E1,-5.1014104E0,-2.6185539E0,-8.886327E-1,1.5877829E0,-1.5145661E0,2.0141249E0,-4.79658E0,-1.8783346E0,6.575329E-1,-2.919552E0,-2.025014E-1,2.1960578E0,1.3485632E0,-3.627725E0,1.0419706E0,4.1954403E0,2.956602E0,-1.3152102E0,-1.586846E-1,-1.9329423E0,-7.436268E-1,1.8738168E0,9.911032E-1,4.50939E0,-2.0060208E-1,8.23752E0,9.849288E0,1.6783737E0,3.9757657E0,7.4534197E0,4.1946316E0,1.3251678E0,5.755058E0,-5.453741E-1,2.2353592E0,9.757847E0,8.392269E0,4.536903E0,4.8366013E0,1.7251056E0,6.407824E0,3.0945177E0,1.0464207E1,8.118115E0,9.591196E0,4.9839234E0,6.586017E0,1.155645E1,1.8132278E1,9.649826E0,1.0295221E1,1.418246E1,6.2031827E0,1.1177681E1,8.654904E0,1.1556976E1,6.140232E0,1.5180925E1,1.6445177E1,1.0023486E1,6.898771E0,1.350398E1,1.7128584E1,2.0482933E1,1.4769084E1,2.0279463E1,2.7571608E1,-9.080007E0,2.0151281E1,2.275535E1,1.1055812E1,1.9441267E1,8.054361E0,2.1432812E1],"split_indices":[10,10,10,10,10,10,10,10,10,0,10,0,10,10,10,1,10,0,0,10,10,0,0,10,10,9,0,4,0,10,3,8,0,0,0,1,4,0,8,9,8,1,8,4,6,0,8,7,7,4,4,9,9,6,8,7,6,7,7,3,7,6,10,3,7,4,3,0,1,0,6,4,0,4,6,1,7,1,8,6,8,8,8,3,3,2,6,0,5,7,5,0,4,7,8,8,0,7,0,4,9,5,5,9,6,6,0,5,7,8,7,0,0,8,8,9,9,8,6,8,5,7,7,8,6,9,7,0,0,0,0,0,0,0,0,0,0,0,0,0,0,0,0,0,0,0,0,0,0,0,0,0,0,0,0,0,0,0,0,0,0,0,0,0,0,0,0,0,0,0,0,0,0,0,0,0,0,0,0,0,0,0,0,0,0,0,0,0,0,0,0,0,0,0,0,0,0,0,0,0,0,0,0,0,0,0,0,0,0,0,0,0,0,0,0,0,0,0,0,0,0,0,0,0,0,0,0,0,0,0,0,0,0,0,0,0,0,0,0,0,0,0,0,0,0,0,0,0,0,0,0,0,0,0,0],"split_type":[0,0,0,0,0,0,0,0,0,0,0,0,0,0,0,0,0,0,0,0,0,0,0,0,0,0,0,0,0,0,0,0,0,0,0,0,0,0,0,0,0,0,0,0,0,0,0,0,0,0,0,0,0,0,0,0,0,0,0,0,0,0,0,0,0,0,0,0,0,0,0,0,0,0,0,0,0,0,0,0,0,0,0,0,0,0,0,0,0,0,0,0,0,0,0,0,0,0,0,0,0,0,0,0,0,0,0,0,0,0,0,0,0,0,0,0,0,0,0,0,0,0,0,0,0,0,0,0,0,0,0,0,0,0,0,0,0,0,0,0,0,0,0,0,0,0,0,0,0,0,0,0,0,0,0,0,0,0,0,0,0,0,0,0,0,0,0,0,0,0,0,0,0,0,0,0,0,0,0,0,0,0,0,0,0,0,0,0,0,0,0,0,0,0,0,0,0,0,0,0,0,0,0,0,0,0,0,0,0,0,0,0,0,0,0,0,0,0,0,0,0,0,0,0,0,0,0,0,0,0,0,0,0,0,0,0,0,0,0,0,0,0,0,0,0,0,0,0,0,0,0,0,0,0,0],"sum_hessian":[8.65539E5,4.53132E5,4.12407E5,1.6269E5,2.90442E5,2.60532E5,1.51875E5,4.0447E4,1.22243E5,1.2849E5,1.61952E5,1.45601E5,1.14931E5,1.04629E5,4.7246E4,3.399E3,3.7048E4,2.7147E4,9.5096E4,9.4822E4,3.3668E4,6.7745E4,9.4207E4,1.16511E5,2.909E4,5.4058E4,6.0873E4,5.4081E4,5.0548E4,3.0444E4,1.6802E4,1.042E3,2.357E3,1.0064E4,2.6984E4,4.88E3,2.2267E4,1.7284E4,7.7812E4,3.7481E4,5.7341E4,1.5958E4,1.771E4,5.0004E4,1.7741E4,7.5296E4,1.8911E4,5.6843E4,5.9668E4,2.245E4,6.64E3,4.1754E4,1.2304E4,4.8798E4,1.2075E4,5.0356E4,3.725E3,4.0776E4,9.772E3,1.3524E4,1.692E4,1.3537E4,3.265E3,4.29E2,6.13E2,2.05E2,2.152E3,1.701E3,8.363E3,5.73E3,2.1254E4,2.908E3,1.972E3,2.0442E4,1.825E3,3.435E3,1.3849E4,2.7978E4,4.9834E4,1.73E2,3.7308E4,1.0916E4,4.6425E4,1.1555E4,4.403E3,3.264E3,1.4446E4,4.5913E4,4.091E3,5.418E3,1.2323E4,1.6093E4,5.9203E4,7.661E3,1.125E4,5.3766E4,3.077E3,5.5576E4,4.092E3,1.7418E4,5.032E3,6.343E3,2.97E2,5.93E3,3.5824E4,1.0254E4,2.05E3,2.7E3,4.6098E4,3.26E3,8.815E3,4.5413E4,4.943E3,1.031E3,2.694E3,3.5972E4,4.804E3,9.04E3,7.32E2,8.493E3,5.031E3,1.2305E4,4.615E3,3.15E2,1.3222E4,2.412E3,8.53E2,1E0,4.28E2,1.3E1,6E2,8.5E1,1.2E2,3.76E2,1.776E3,3.35E2,1.366E3,5.017E3,3.346E3,1.827E3,3.903E3,8.84E2,2.037E4,2.6E3,3.08E2,4.7E2,1.502E3,1.1575E4,8.867E3,1.588E3,2.37E2,1.856E3,1.579E3,6.5E1,1.3784E4,1.556E4,1.2418E4,1.5304E4,3.453E4,1.54E2,1.9E1,1.3935E4,2.3373E4,9.755E3,1.161E3,2.2008E4,2.4417E4,9.691E3,1.864E3,3.128E3,1.275E3,9.08E2,2.356E3,7.27E2,1.3719E4,1.1273E4,3.464E4,2.888E3,1.203E3,5.375E3,4.3E1,8.787E3,3.536E3,6.099E3,9.994E3,5.4623E4,4.58E3,6.126E3,1.535E3,2.066E3,9.184E3,1.2648E4,4.1118E4,7.25E2,2.352E3,7.26E3,4.8316E4,9.82E2,3.11E3,8.245E3,9.173E3,1.622E3,3.41E3,5.815E3,5.28E2,5.5E1,2.42E2,2.73E2,5.657E3,1.3086E4,2.2738E4,8.196E3,2.058E3,3.13E2,1.737E3,2.219E3,4.81E2,4.2016E4,4.082E3,2.294E3,9.66E2,7.163E3,1.652E3,3.3929E4,1.1484E4,9.71E2,3.972E3,3.44E2,6.87E2,2.088E3,6.06E2,3.684E3,3.2288E4,5.46E2,4.258E3,2.802E3,6.238E3,6.87E2,4.5E1,8.037E3,4.56E2,2.22E2,4.809E3,8.654E3,3.651E3,4.068E3,5.47E2,3.04E2,1.1E1,1.2082E4,1.14E3,8.7E1,2.325E3,5.32E2,3.21E2],"tree_param":{"num_deleted":"0","num_feature":"11","num_nodes":"255","size_leaf_vector":"1"}},{"base_weights":[-2.494785E-2,-2.3959093E1,3.2743595E1,-4.3835102E1,-1.0755812E1,2.0368406E1,5.656764E1,-6.0510017E1,-3.5900776E1,-1.874033E1,-3.2590873E0,1.22854805E1,2.9157257E1,4.9281967E1,7.385491E1,-8.639884E1,-5.5633553E1,-4.1456722E1,-3.0880987E1,-1.6088943E1,-2.6156393E1,-6.830045E0,1.8437382E0,1.4603064E1,2.923344E0,2.496711E1,3.4450706E1,4.564277E1,5.7466152E1,6.891467E1,7.978181E1,-7.361906E1,-9.866851E1,-4.5023613E1,-5.8474457E1,-3.1781633E1,-4.408751E1,-2.1354858E1,-3.348475E1,-2.0050491E1,-1.1957451E1,-3.0626038E1,-2.1446047E1,9.58555E-1,-8.786205E0,3.8255093E0,-6.0063615E0,1.2966855E0,1.6153301E1,-3.7238789E0,5.259555E0,1.35071E1,2.6752161E1,2.6748123E1,3.738967E1,3.3366844E1,4.7876144E1,6.0186234E1,4.654143E1,7.148506E1,5.7575138E1,8.247628E1,6.448866E1,-7.236242E1,-1.0407589E2,-7.648372E1,-1.1112658E2,-4.8015057E1,-3.7046707E1,-6.563397E1,-5.517864E1,-3.9594383E1,-2.8126339E1,-4.5637924E1,-3.2217003E1,-3.6695488E1,-1.9474752E1,3.0343178E1,-3.3829967E1,-1.3251466E1,-2.2252905E1,-1.3338252E1,2.8666174E0,-3.277935E1,-2.5009897E1,-2.9701494E1,-1.9462833E1,-1.7464561E0,9.38757E0,-8.022077E0,-2.8345467E1,-8.136961E0,5.174255E0,-1.1486246E1,-2.823994E0,4.323984E0,-3.9889874E1,1.8627747E1,7.334624E0,-8.754682E0,3.1651342E0,8.236801E0,-3.5719576E0,5.0389893E1,1.1515912E1,3.0200613E1,1.7965626E1,3.262658E1,1.554282E1,4.032967E1,2.3658659E1,3.539451E1,2.6785455E0,3.9832767E1,5.1858727E1,6.2304176E1,4.6172398E1,3.1141989E1,4.995377E1,6.660141E1,7.952767E1,5.530033E1,7.872069E1,9.881964E1,8.135015E1,7.612685E1,2.4487925E1,-9.35982E0,-1.4769778E1,-1.9819403E1,-2.4976835E1,-1.9306425E1,-1.4064798E1,-2.4368082E1,-1.9223024E1,-9.953597E0,-6.9740176E0,-6.5324593E0,-9.49068E0,-8.509135E0,-1.3303754E1,-1.0383205E1,-1.1998485E1,-3.6647458E0,-8.278542E0,-4.258123E0,-6.6435256E0,-8.243678E0,-1.0188893E1,-7.2084107E0,-1.4204386E0,-9.3582115E0,-2.6386843E0,8.713393E0,-3.9908378E0,8.360727E0,-1.4915283E1,-9.178981E0,-6.4412203E0,-4.3665004E0,-2.2015724E0,-5.98327E0,-4.0483074E0,-1.5701503E0,-3.406205E0,-1.4123709E0,6.108256E0,5.306532E0,-6.602301E0,-4.4811974E0,-8.235096E0,-9.530864E0,-5.262462E0,-4.3968296E0,-2.3598137E0,-1.5374737E0,1.8312639E-1,2.9980338E0,-2.414581E0,-4.0611463E0,-1.3827127E0,-6.247873E0,6.196292E-1,-2.312086E0,1.1409329E1,1.4571947E0,-5.6594294E-1,-3.233001E0,-1.8942499E-1,2.6613803E0,-1.0859303E0,3.2588348E0,1.5653716E-1,-2.207179E0,-1.1093926E1,1.540204E0,4.1463184E0,2.553421E0,6.977725E-1,-7.3577952E0,-1.2293898E0,1.4316765E0,-7.954091E-1,1.9583835E-1,2.5926716E0,-1.4910458E-1,-3.7476609E0,2.9637339E1,5.0215387E0,1.0339469E0,4.7134266E0,3.812978E0,7.168702E0,5.1157365E0,2.1870537E0,2.9692125E-1,6.9231296E0,4.405548E0,-2.4267347E0,4.793308E0,8.718745E0,9.8386633E-1,5.19891E0,6.3881087E0,9.071464E0,-6.679391E0,2.0464754E0,4.42216E0,8.734528E0,1.1549411E1,7.8747864E0,1.0804079E1,1.3166681E1,9.964528E0,6.905754E0,1.5790298E1,5.2459297E0,1.0774558E1,6.304007E0,1.3000968E1,1.6244047E1,1.6689077E1,1.3281184E1,7.519765E0,1.1500544E1,1.6709501E1,9.256337E0,1.9991549E1,-3.7245018E1,1.6059164E1,1.9283852E1,1.703171E1,1.2958269E1,8.7739E0,-1.5645328E1],"categories":[],"categories_nodes":[],"categories_segments":[],"categories_sizes":[],"default_left":[0,0,0,0,0,0,0,0,0,0,0,0,0,0,0,0,0,0,0,0,0,0,0,0,0,0,0,0,0,0,0,0,0,0,0,0,0,0,0,0,0,0,0,0,0,0,0,0,0,0,0,0,0,0,0,0,0,0,0,0,0,0,0,0,0,0,0,0,0,0,0,0,0,0,0,0,0,0,0,0,0,0,0,0,0,0,0,0,0,0,0,0,0,0,0,0,0,0,0,0,0,0,0,0,0,0,0,0,0,0,0,0,0,0,0,0,0,0,0,0,0,0,0,0,0,0,0,0,0,0,0,0,0,0,0,0,0,0,0,0,0,0,0,0,0,0,0,0,0,0,0,0,0,0,0,0,0,0,0,0,0,0,0,0,0,0,0,0,0,0,0,0,0,0,0,0,0,0,0,0,0,0,0,0,0,0,0,0,0,0,0,0,0,0,0,0,0,0,0,0,0,0,0,0,0,0,0,0,0,0,0,0,0,0,0,0,0,0,0,0,0,0,0,0,0,0,0,0,0,0,0,0,0,0,0,0,0,0,0,0,0,0,0,0,0,0,0,0,0,0,0,0,0,0,0],"id":4,"left_children":[1,3,5,7,9,11,13,15,17,19,21,23,25,27,29,31,33,35,37,39,41,43,45,47,49,51,53,55,57,59,61,63,65,67,69,71,73,75,77,79,81,83,85,87,89,91,93,95,97,99,101,103,105,107,109,111,113,115,117,119,121,123,125,127,129,131,133,135,137,139,141,143,145,147,149,151,153,155,157,159,161,163,165,167,169,171,173,175,177,179,181,183,185,187,189,191,193,195,197,199,201,203,205,207,209,211,213,215,217,219,221,223,225,227,229,231,233,235,237,239,241,243,245,247,249,251,253,-1,-1,-1,-1,-1,-1,-1,-1,-1,-1,-1,-1,-1,-1,-1,-1,-1,-1,-1,-1,-1,-1,-1,-1,-1,-1,-1,-1,-1,-1,-1,-1,-1,-1,-1,-1,-1,-1,-1,-1,-1,-1,-1,-1,-1,-1,-1,-1,-1,-1,-1,-1,-1,-1,-1,-1,-1,-1,-1,-1,-1,-1,-1,-1,-1,-1,-1,-1,-1,-1,-1,-1,-1,-1,-1,-1,-1,-1,-1,-1,-1,-1,-1,-1,-1,-1,-1,-1,-1,-1,-1,-1,-1,-1,-1,-1,-1,-1,-1,-1,-1,-1,-1,-1,-1,-1,-1,-1,-1,-1,-1,-1,-1,-1,-1,-1,-1,-1,-1,-1,-1,-1,-1,-1,-1,-1,-1,-1],"loss_changes":[6.7931034E8,1.3135789E8,1.0778787E8,2.6430752E7,1.8002812E7,1.7092984E7,1.5738144E7,8.127072E6,3.77432E6,2.863312E6,2.8266055E6,2.719614E6,2.555952E6,2.616288E6,1.079488E6,1.593384E6,1.631232E6,1.634056E6,1.763424E6,1.755754E6,8.06852E5,1.390392E6,9.935461E5,2.07252E6,3.8628022E5,1.315948E6,1.151912E6,1.667288E6,8.01352E5,5.85152E5,6.88568E5,1.8399E5,1.43006E6,2.71518E5,1.005232E6,3.91271E5,9.28224E5,4.397025E5,1.231776E6,8.1983E5,1.075075E6,2.37152E5,3.05224E5,4.17723E5,1.089903E6,8.227476E5,2.2445984E5,1.3074844E6,1.963524E6,2.2422558E5,4.8396284E5,6.364434E5,1.686344E6,9.26217E5,1.487092E6,5.83145E5,1.647624E6,6.40096E5,2.82152E5,6.41872E5,1.75596E5,2.55384E5,1.174545E6,1.7928E5,7.9305E3,2.2476E5,5.24012E5,1.90114E5,1.411715E5,2.72384E5,4.568E5,1.66668E5,3.25185E5,1.04568E6,5.606695E5,3.94669E5,4.120735E5,3.6504794E5,1.086948E6,2.578E5,6.37028E5,9.73455E5,1.2300732E6,1.96692E5,2.288255E5,2.18763E5,2.907995E5,2.1936431E5,5.3534444E5,9.55717E5,2.4960375E5,1.1536965E6,7.7456075E5,2.3317175E5,3.424196E5,4.1405288E5,3.2215612E5,1.615214E6,4.1192538E5,2.731169E5,7.791794E4,4.72175E5,1.9893031E5,1.0940775E6,6.2937825E5,2.511572E6,8.39702E5,5.715E5,8.694881E5,1.620428E6,2.845285E5,3.01095E5,1.5894152E5,1.1599E6,2.529648E6,5.46528E5,1.19326E5,2.2855812E5,3.17468E5,2.3414E5,3.14212E5,1.29648E5,5.26575E4,3.16422E5,2.05096E5,1.94838E5,1.1401612E6,0E0,0E0,0E0,0E0,0E0,0E0,0E0,0E0,0E0,0E0,0E0,0E0,0E0,0E0,0E0,0E0,0E0,0E0,0E0,0E0,0E0,0E0,0E0,0E0,0E0,0E0,0E0,0E0,0E0,0E0,0E0,0E0,0E0,0E0,0E0,0E0,0E0,0E0,0E0,0E0,0E0,0E0,0E0,0E0,0E0,0E0,0E0,0E0,0E0,0E0,0E0,0E0,0E0,0E0,0E0,0E0,0E0,0E0,0E0,0E0,0E0,0E0,0E0,0E0,0E0,0E0,0E0,0E0,0E0,0E0,0E0,0E0,0E0,0E0,0E0,0E0,0E0,0E0,0E0,0E0,0E0,0E0,0E0,0E0,0E0,0E0,0E0,0E0,0E0,0E0,0E0,0E0,0E0,0E0,0E0,0E0,0E0,0E0,0E0,0E0,0E0,0E0,0E0,0E0,0E0,0E0,0E0,0E0,0E0,0E0,0E0,0E0,0E0,0E0,0E0,0E0,0E0,0E0,0E0,0E0,0E0,0E0,0E0,0E0,0E0,0E0,0E0,0E0],"parents":[2147483647,0,0,1,1,2,2,3,3,4,4,5,5,6,6,7,7,8,8,9,9,10,10,11,11,12,12,13,13,14,14,15,15,16,16,17,17,18,18,19,19,20,20,21,21,22,22,23,23,24,24,25,25,26,26,27,27,28,28,29,29,30,30,31,31,32,32,33,33,34,34,35,35,36,36,37,37,38,38,39,39,40,40,41,41,42,42,43,43,44,44,45,45,46,46,47,47,48,48,49,49,50,50,51,51,52,52,53,53,54,54,55,55,56,56,57,57,58,58,59,59,60,60,61,61,62,62,63,63,64,64,65,65,66,66,67,67,68,68,69,69,70,70,71,71,72,72,73,73,74,74,75,75,76,76,77,77,78,78,79,79,80,80,81,81,82,82,83,83,84,84,85,85,86,86,87,87,88,88,89,89,90,90,91,91,92,92,93,93,94,94,95,95,96,96,97,97,98,98,99,99,100,100,101,101,102,102,103,103,104,104,105,105,106,106,107,107,108,108,109,109,110,110,111,111,112,112,113,113,114,114,115,115,116,116,117,117,118,118,119,119,120,120,121,121,122,122,123,123,124,124,125,125,126,126],"right_children":[2,4,6,8,10,12,14,16,18,20,22,24,26,28,30,32,34,36,38,40,42,44,46,48,50,52,54,56,58,60,62,64,66,68,70,72,74,76,78,80,82,84,86,88,90,92,94,96,98,100,102,104,106,108,110,112,114,116,118,120,122,124,126,128,130,132,134,136,138,140,142,144,146,148,150,152,154,156,158,160,162,164,166,168,170,172,174,176,178,180,182,184,186,188,190,192,194,196,198,200,202,204,206,208,210,212,214,216,218,220,222,224,226,228,230,232,234,236,238,240,242,244,246,248,250,252,254,-1,-1,-1,-1,-1,-1,-1,-1,-1,-1,-1,-1,-1,-1,-1,-1,-1,-1,-1,-1,-1,-1,-1,-1,-1,-1,-1,-1,-1,-1,-1,-1,-1,-1,-1,-1,-1,-1,-1,-1,-1,-1,-1,-1,-1,-1,-1,-1,-1,-1,-1,-1,-1,-1,-1,-1,-1,-1,-1,-1,-1,-1,-1,-1,-1,-1,-1,-1,-1,-1,-1,-1,-1,-1,-1,-1,-1,-1,-1,-1,-1,-1,-1,-1,-1,-1,-1,-1,-1,-1,-1,-1,-1,-1,-1,-1,-1,-1,-1,-1,-1,-1,-1,-1,-1,-1,-1,-1,-1,-1,-1,-1,-1,-1,-1,-1,-1,-1,-1,-1,-1,-1,-1,-1,-1,-1,-1,-1],"split_conditions":[1.8738584E3,9.7292816E2,3.002222E3,4.8745453E2,1.4102723E3,2.348406E3,4.0858252E3,1.4806894E2,7.3792975E2,1.9E1,1.6733752E3,2E1,2.6766697E3,3.5879119E3,4.7889897E3,2E0,8E0,8E0,8E0,1.1987081E3,1.1987081E3,8E0,2E1,5.1413277E1,5.1467514E1,-3.038192E-1,5.146707E1,-3.1891832E-1,3.7732817E-2,2E1,2E0,9.514412E-2,3E0,2E0,2.9135806E2,5.1491592E1,3.2E1,1.4E1,-4.5237952E-1,7E0,3.2E1,2E0,5.1464897E1,2E0,1.09557636E-1,-2.946039E-1,-1.4811203E-1,5.142931E1,-2.3985337E-2,-1.0517242E-1,5.1570553E1,-4.5237952E-1,-2.3985337E-2,5.1450737E1,2.3357064E-2,5.161361E1,5.146707E1,2.1E1,1E0,1.5E1,2.9E1,5.1358955E1,6.1919854E3,5.139389E1,1E0,6.528381E1,4E0,3.2E1,3E0,5.1372208E1,1.8E1,-2.2511633E-1,5.1519173E1,1.9E1,-1.2447726E-1,-5.1835563E-2,-4.5237952E-1,5.1477882E1,1.4E1,1E0,5.146707E1,1.3E1,6.7E1,-4.5237952E-1,7E0,-2.1149385E-1,7.5E1,5.148745E1,7E0,-2.9821628E-1,2.245441E-1,9E1,-2.2307258E-2,1.8097255E3,-1.268788E-1,5.137449E1,-3.044808E-1,-2.9821628E-1,5.1506203E1,8E0,5.1435417E1,4.2E1,5.1630558E1,5.1461197E1,5.1E1,5.1487366E1,5.1506718E1,5.134736E1,9E1,-3.065205E-1,1.2853101E-2,7.4E1,-4.3884417E-1,-2.0093979E-1,-1.2351401E-2,5.146108E1,5.1581863E1,5.152602E1,7.5E1,2.9E1,3.208245E-2,5.138227E1,2.4199951E-2,5.1435368E1,1.767171E-1,4.7E1,2.1E1,-9.35982E0,-1.4769778E1,-1.9819403E1,-2.4976835E1,-1.9306425E1,-1.4064798E1,-2.4368082E1,-1.9223024E1,-9.953597E0,-6.9740176E0,-6.5324593E0,-9.49068E0,-8.509135E0,-1.3303754E1,-1.0383205E1,-1.1998485E1,-3.6647458E0,-8.278542E0,-4.258123E0,-6.6435256E0,-8.243678E0,-1.0188893E1,-7.2084107E0,-1.4204386E0,-9.3582115E0,-2.6386843E0,8.713393E0,-3.9908378E0,8.360727E0,-1.4915283E1,-9.178981E0,-6.4412203E0,-4.3665004E0,-2.2015724E0,-5.98327E0,-4.0483074E0,-1.5701503E0,-3.406205E0,-1.4123709E0,6.108256E0,5.306532E0,-6.602301E0,-4.4811974E0,-8.235096E0,-9.530864E0,-5.262462E0,-4.3968296E0,-2.3598137E0,-1.5374737E0,1.8312639E-1,2.9980338E0,-2.414581E0,-4.0611463E0,-1.3827127E0,-6.247873E0,6.196292E-1,-2.312086E0,1.1409329E1,1.4571947E0,-5.6594294E-1,-3.233001E0,-1.8942499E-1,2.6613803E0,-1.0859303E0,3.2588348E0,1.5653716E-1,-2.207179E0,-1.1093926E1,1.540204E0,4.1463184E0,2.553421E0,6.977725E-1,-7.3577952E0,-1.2293898E0,1.4316765E0,-7.954091E-1,1.9583835E-1,2.5926716E0,-1.4910458E-1,-3.7476609E0,2.9637339E1,5.0215387E0,1.0339469E0,4.7134266E0,3.812978E0,7.168702E0,5.1157365E0,2.1870537E0,2.9692125E-1,6.9231296E0,4.405548E0,-2.4267347E0,4.793308E0,8.718745E0,9.8386633E-1,5.19891E0,6.3881087E0,9.071464E0,-6.679391E0,2.0464754E0,4.42216E0,8.734528E0,1.1549411E1,7.8747864E0,1.0804079E1,1.3166681E1,9.964528E0,6.905754E0,1.5790298E1,5.2459297E0,1.0774558E1,6.304007E0,1.3000968E1,1.6244047E1,1.6689077E1,1.3281184E1,7.519765E0,1.1500544E1,1.6709501E1,9.256337E0,1.9991549E1,-3.7245018E1,1.6059164E1,1.9283852E1,1.703171E1,1.2958269E1,8.7739E0,-1.5645328E1],"split_indices":[10,10,10,10,10,10,10,10,10,0,10,0,10,10,10,1,0,0,0,10,10,0,0,6,8,9,8,7,7,0,1,9,3,1,10,6,4,2,9,0,4,1,8,1,7,7,9,8,9,7,6,9,9,8,7,6,8,0,4,0,4,6,10,6,1,10,3,4,3,8,0,7,6,4,7,7,9,6,2,0,8,4,2,9,3,7,5,8,3,7,9,5,7,10,9,6,7,7,6,4,6,5,8,6,2,6,6,6,2,9,9,5,7,9,7,8,6,6,2,4,9,6,9,8,7,2,4,0,0,0,0,0,0,0,0,0,0,0,0,0,0,0,0,0,0,0,0,0,0,0,0,0,0,0,0,0,0,0,0,0,0,0,0,0,0,0,0,0,0,0,0,0,0,0,0,0,0,0,0,0,0,0,0,0,0,0,0,0,0,0,0,0,0,0,0,0,0,0,0,0,0,0,0,0,0,0,0,0,0,0,0,0,0,0,0,0,0,0,0,0,0,0,0,0,0,0,0,0,0,0,0,0,0,0,0,0,0,0,0,0,0,0,0,0,0,0,0,0,0,0,0,0,0,0,0],"split_type":[0,0,0,0,0,0,0,0,0,0,0,0,0,0,0,0,0,0,0,0,0,0,0,0,0,0,0,0,0,0,0,0,0,0,0,0,0,0,0,0,0,0,0,0,0,0,0,0,0,0,0,0,0,0,0,0,0,0,0,0,0,0,0,0,0,0,0,0,0,0,0,0,0,0,0,0,0,0,0,0,0,0,0,0,0,0,0,0,0,0,0,0,0,0,0,0,0,0,0,0,0,0,0,0,0,0,0,0,0,0,0,0,0,0,0,0,0,0,0,0,0,0,0,0,0,0,0,0,0,0,0,0,0,0,0,0,0,0,0,0,0,0,0,0,0,0,0,0,0,0,0,0,0,0,0,0,0,0,0,0,0,0,0,0,0,0,0,0,0,0,0,0,0,0,0,0,0,0,0,0,0,0,0,0,0,0,0,0,0,0,0,0,0,0,0,0,0,0,0,0,0,0,0,0,0,0,0,0,0,0,0,0,0,0,0,0,0,0,0,0,0,0,0,0,0,0,0,0,0,0,0,0,0,0,0,0,0,0,0,0,0,0,0,0,0,0,0,0,0,0,0,0,0,0,0],"sum_hessian":[8.66148E5,5.00548E5,3.656E5,1.99788E5,3.0076E5,2.40616E5,1.24984E5,6.4412E4,1.35376E5,1.45641E5,1.55119E5,1.25343E5,1.15273E5,8.793E4,3.7054E4,1.0207E4,5.4205E4,6.4253E4,7.1123E4,1.07287E5,3.8354E4,9.1257E4,6.3862E4,1.00471E5,2.4872E4,6.4345E4,5.0928E4,6.087E4,2.706E4,2.0216E4,1.6838E4,5.003E3,5.204E3,1.1452E4,4.2753E4,1.3739E4,5.0514E4,1.5269E4,5.5854E4,5.4768E4,5.2519E4,1.9677E4,1.8677E4,1.8319E4,7.2938E4,5.099E4,1.2872E4,1.0484E4,8.9987E4,6.468E3,1.8404E4,8.673E3,5.5672E4,1.4068E4,3.686E4,9.372E3,5.1498E4,2.1662E4,5.398E3,1.6476E4,3.74E3,1.4312E4,2.526E3,4.808E3,1.95E2,1.874E3,3.33E3,8.325E3,3.127E3,1.3471E4,2.9282E4,4.376E3,9.363E3,4.4676E4,5.838E3,1.665E3,1.3604E4,3E2,5.5554E4,1.3402E4,4.1366E4,4.8044E4,4.475E3,1.422E4,5.457E3,3.615E3,1.5062E4,1.3869E4,4.45E3,7.0197E4,2.741E3,5.166E3,4.5824E4,4.728E3,8.144E3,9.767E3,7.17E2,7.0269E4,1.9718E4,3.738E3,2.73E3,1.3764E4,4.64E3,4.43E2,8.23E3,3.9979E4,1.5693E4,9.226E3,4.842E3,3.0358E4,6.502E3,8.791E3,5.81E2,1.7058E4,3.444E4,1.8815E4,2.847E3,9.81E2,4.417E3,1.0257E4,6.219E3,3.38E3,3.6E2,9.17E2,1.3395E4,1.956E3,5.7E2,2.66E2,4.542E3,1.62E2,3.3E1,4.37E2,1.437E3,1.939E3,1.391E3,7.343E3,9.82E2,2.203E3,9.24E2,4.99E2,1.2972E4,1.746E4,1.1822E4,3.42E2,4.034E3,3.999E3,5.364E3,2.438E4,2.0296E4,5.066E3,7.72E2,1.164E3,5.01E2,1.02E2,1.3502E4,2.71E2,2.9E1,6.587E3,4.8967E4,2.776E3,1.0626E4,8.597E3,3.2769E4,1.9327E4,2.8717E4,3.294E3,1.181E3,5.5E1,1.4165E4,4.702E3,7.55E2,5.72E2,3.043E3,1.1332E4,3.73E3,4.291E3,9.578E3,3.529E3,9.21E2,5.809E3,6.4388E4,2.51E3,2.31E2,4.909E3,2.57E2,3.6258E4,9.566E3,3.274E3,1.454E3,1.132E3,7.012E3,2.229E3,7.538E3,2.52E2,4.65E2,1.1346E4,5.8923E4,8.172E3,1.1546E4,3.17E2,3.421E3,1.751E3,9.79E2,5.429E3,8.335E3,3.912E3,7.28E2,9E1,3.53E2,5.392E3,2.838E3,1.3447E4,2.6532E4,7.533E3,8.16E3,5.54E2,8.672E3,3.923E3,9.19E2,5.05E3,2.5308E4,7.21E2,5.781E3,6.531E3,2.26E3,1E2,4.81E2,3.039E3,1.4019E4,2.34E4,1.104E4,5.626E3,1.3189E4,2.165E3,6.82E2,9E1,8.91E2,3.641E3,7.76E2,9.252E3,1.005E3,4.785E3,1.434E3,3.76E2,3.004E3,3.12E2,4.8E1,9.14E2,3E0,1.2525E4,8.7E2,1.085E3,8.71E2,4.8E2,9E1],"tree_param":{"num_deleted":"0","num_feature":"11","num_nodes":"255","size_leaf_vector":"1"}},{"base_weights":[1.3649445E-2,-1.8098515E1,2.7825563E1,-3.4104675E1,-7.135834E0,1.7794594E1,4.593855E1,-4.853403E1,-2.788259E1,-1.3289577E1,-3.8281825E-1,1.2329999E1,2.5502775E1,4.046926E1,6.0155067E1,-6.921432E1,-4.4635204E1,-3.2599655E1,-2.3577944E1,-1.6993898E1,-9.872947E0,6.624727E0,-2.0841632E0,1.4706007E1,5.5541096E0,2.7891872E1,1.8742205E1,3.5404053E1,4.4813797E1,5.6989594E1,6.487571E1,-5.834719E1,-7.951858E1,-3.5576008E1,-4.705181E1,-3.8174496E1,-2.951344E1,3.1744205E1,-2.3886541E1,-9.49433E0,-1.8630861E1,-1.5145188E1,-7.5955467E0,-3.0825894E0,8.708165E0,-8.535623E0,-3.160949E-1,1.3754987E1,3.1189833E1,4.65102E0,2.3028452E1,2.454527E1,3.501897E1,3.1958752E0,1.973796E1,2.2207859E1,3.7253983E1,4.848567E1,3.8634167E1,5.9363667E1,4.661931E1,6.724274E1,5.1743626E1,-6.075475E1,-3.719363E1,-6.287584E1,-8.9126884E1,-4.150342E1,-3.2027718E1,-5.155839E1,-4.356613E1,-4.2480118E1,-3.28857E1,-2.1597519E1,-3.3164303E1,3.9537575E1,-4.5619263E1,-2.54766E1,-1.3057822E1,-3.2063558E0,-1.2631908E1,-1.9929663E1,-8.624622E0,7.544097E1,-1.5622601E1,-1.7123605E0,-1.0892173E1,-4.3939233E0,1.0800193E1,4.1358833E0,1.39674835E1,-1.013504E1,8.181782E0,3.435639E0,-5.614079E0,1.7247097E1,8.787427E0,1.623995E1,4.4959858E1,7.4678965E0,-1.9224415E-2,2.9477873E1,-3.6473773E0,-4.7646266E-1,2.5334873E1,3.615022E1,7.0124846E0,-1.3210968E1,1.233107E1,1.2595786E1,2.2786236E1,2.4593918E1,2.048414E-1,4.086864E1,2.878355E1,4.9340622E1,2.5086092E1,4.0953682E1,2.8611166E1,5.5084328E1,6.6434326E1,4.9812317E1,2.9616926E1,7.161304E1,6.338534E1,6.0093693E1,2.9975609E1,-8.148982E0,-1.2429137E1,-4.932077E0,-9.975539E0,-7.632647E0,-1.3413902E1,-1.1376998E1,-1.8464931E1,-9.149164E0,-5.94613E0,-4.518528E0,-6.9501214E0,-1.0535606E1,-7.6209435E0,-9.412955E0,-7.772126E0,-8.763163E0,-2.121867E0,-7.382419E0,-5.1820536E0,-1.0429863E1,-3.565066E0,-7.3298097E0,-4.9190392E0,6.8753257E0,1.6844704E1,-1.2811892E1,-2.7910511E0,-3.9592102E0,-6.0006347E0,-4.332441E0,1.0189167E0,-1.4450882E1,-5.5461746E-1,-3.9396768E0,-1.8132893E0,-3.2780583E0,-4.8228807E0,-3.1715345E0,3.360112E0,1.9686888E1,-4.7712607E0,-4.091537E0,-2.0890484E0,-1.3481792E0,3.837024E0,-8.382851E-1,-3.2999082E0,-1.6280873E0,1.643256E-2,1.2722573E1,2.3893885E-1,4.7024537E-2,2.02941E0,3.62137E0,1.662522E0,-3.4086287E-1,-2.4788134E0,-1.4026848E0,7.716316E0,8.195815E-1,-3.6158147E0,-2.8942885E0,-8.055633E-1,2.9064872E0,4.630992E0,2.0197623E0,-6.283702E-1,-2.0020654E0,5.0854564E0,1.0098101E1,3.3703908E-1,9.9758464E-1,3.3490713E0,-1.1782054E0,1.0899452E0,-6.880666E-1,7.344368E0,6.8640137E0,-1.5970298E0,-1.5372132E0,6.653516E0,5.679764E0,4.0716033E0,5.2063985E0,8.038848E0,3.8414896E0,-4.055775E-1,-1.0034187E0,-7.615136E0,4.350055E0,-3.3462625E0,2.2945114E1,2.4698112E0,3.9300408E0,6.7687354E0,4.098441E0,7.6169944E0,-4.219404E0,1.0256752E0,5.0206304E0,8.60367E0,4.1416564E0,6.3204803E0,7.5578446E0,1.0264948E1,-1.20936E-1,6.6888976E0,8.774865E0,6.250276E0,1.0782221E1,5.3006263E0,1.0715508E1,1.3518613E1,9.675853E0,1.36535635E1,6.692592E0,1.0740642E1,5.05224E0,1.3810946E1,1.8275524E1,1.3871785E1,-4.756451E1,1.2823318E1,3.2060602E0,1.2553218E1,-1.2650622E0,1.3489837E1],"categories":[],"categories_nodes":[],"categories_segments":[],"categories_sizes":[],"default_left":[0,0,0,0,0,0,0,0,0,0,0,0,0,0,0,0,0,0,0,0,0,0,0,0,0,0,0,0,0,0,0,0,0,0,0,0,0,0,0,0,0,0,0,0,0,0,0,0,0,0,0,0,0,0,0,0,0,0,0,0,0,0,0,0,0,0,0,0,0,0,0,0,0,0,0,0,0,0,0,0,0,0,0,0,0,0,0,0,0,0,0,0,0,0,0,0,0,0,0,0,0,0,0,0,0,0,0,0,0,0,0,0,0,0,0,0,0,0,0,0,0,0,0,0,0,0,0,0,0,0,0,0,0,0,0,0,0,0,0,0,0,0,0,0,0,0,0,0,0,0,0,0,0,0,0,0,0,0,0,0,0,0,0,0,0,0,0,0,0,0,0,0,0,0,0,0,0,0,0,0,0,0,0,0,0,0,0,0,0,0,0,0,0,0,0,0,0,0,0,0,0,0,0,0,0,0,0,0,0,0,0,0,0,0,0,0,0,0,0,0,0,0,0,0,0,0,0,0,0,0,0,0,0,0,0,0,0,0,0,0,0,0,0,0,0,0,0,0,0,0,0,0,0,0,0],"id":5,"left_children":[1,3,5,7,9,11,13,15,17,19,21,23,25,27,29,31,33,35,37,39,41,43,45,47,49,51,53,55,57,59,61,63,65,67,69,71,73,75,77,79,81,83,85,87,89,91,93,95,97,99,101,103,105,107,109,111,113,115,117,119,121,123,125,127,129,131,133,135,137,139,141,143,145,147,149,151,153,155,157,159,161,163,165,167,169,171,173,175,177,179,181,183,185,187,189,191,193,195,197,199,201,203,205,207,209,211,213,215,217,219,221,223,225,227,229,231,233,235,237,239,241,243,245,247,249,251,253,-1,-1,-1,-1,-1,-1,-1,-1,-1,-1,-1,-1,-1,-1,-1,-1,-1,-1,-1,-1,-1,-1,-1,-1,-1,-1,-1,-1,-1,-1,-1,-1,-1,-1,-1,-1,-1,-1,-1,-1,-1,-1,-1,-1,-1,-1,-1,-1,-1,-1,-1,-1,-1,-1,-1,-1,-1,-1,-1,-1,-1,-1,-1,-1,-1,-1,-1,-1,-1,-1,-1,-1,-1,-1,-1,-1,-1,-1,-1,-1,-1,-1,-1,-1,-1,-1,-1,-1,-1,-1,-1,-1,-1,-1,-1,-1,-1,-1,-1,-1,-1,-1,-1,-1,-1,-1,-1,-1,-1,-1,-1,-1,-1,-1,-1,-1,-1,-1,-1,-1,-1,-1,-1,-1,-1,-1,-1,-1],"loss_changes":[4.357369E8,9.192134E7,6.1984096E7,1.9116992E7,1.2920435E7,9.248184E6,9.45192E6,5.169824E6,3.020424E6,2.058696E6,1.7673685E6,2.068422E6,1.47062E6,1.930864E6,5.01072E5,1.134732E6,1.180144E6,1.220288E6,1.328968E6,9.58004E5,1.015989E6,5.857311E5,1.3605902E6,1.490794E6,5.2631194E5,1.604304E6,3.68153E5,9.89056E5,1.070624E6,4.95268E5,4.17772E5,2.5014E5,8.29116E5,2.37848E5,6.67128E5,5.7456E5,1.319984E6,2.6226603E5,1.331812E6,2.758895E5,8.32426E5,1.105143E6,1.146206E6,9.322043E4,5.73297E5,6.861295E5,1.8609485E6,1.560026E6,1.067273E6,4.1729275E5,2.820872E5,9.0485E5,6.80946E5,2.1494055E5,4.86389E5,2.618675E5,1.087652E6,5.91832E5,4.08514E5,4.94292E5,2.03357E5,1.88972E5,3.75178E5,1.21267E5,7.9687E4,1.95801E5,3.35706E5,2.11155E5,1.82081E5,2.77852E5,3.9384E5,5.92914E5,3.17959E5,1.66174E6,9.32948E5,8.7739125E4,2.2461648E4,1.73406E6,1.5476434E6,1.3912008E5,2.3489312E5,8.39468E5,1.3541502E6,3.0829562E5,6.354735E5,2.2305312E6,1.423067E6,7.843261E4,2.2414712E5,2.991018E5,2.5939275E5,4.4598025E5,1.0354585E6,7.810499E5,5.452826E5,8.46638E5,5.8085725E5,6.005267E5,6.46124E5,4.5514988E5,3.8329597E5,3.1489138E5,5.2976168E4,3.4133584E5,6.76422E5,8.44574E5,9.220544E4,1.0432674E5,2.5248267E5,1.671355E5,5.425765E5,2.4823375E5,5.139473E4,8.43588E5,2.41544E5,6.5352E5,2.2484631E5,4.04074E5,1.7537025E5,1.89722E5,2.0194E5,2.00176E5,1.0115194E5,2.33082E5,1.360132E6,1.753905E5,7.853341E5,0E0,0E0,0E0,0E0,0E0,0E0,0E0,0E0,0E0,0E0,0E0,0E0,0E0,0E0,0E0,0E0,0E0,0E0,0E0,0E0,0E0,0E0,0E0,0E0,0E0,0E0,0E0,0E0,0E0,0E0,0E0,0E0,0E0,0E0,0E0,0E0,0E0,0E0,0E0,0E0,0E0,0E0,0E0,0E0,0E0,0E0,0E0,0E0,0E0,0E0,0E0,0E0,0E0,0E0,0E0,0E0,0E0,0E0,0E0,0E0,0E0,0E0,0E0,0E0,0E0,0E0,0E0,0E0,0E0,0E0,0E0,0E0,0E0,0E0,0E0,0E0,0E0,0E0,0E0,0E0,0E0,0E0,0E0,0E0,0E0,0E0,0E0,0E0,0E0,0E0,0E0,0E0,0E0,0E0,0E0,0E0,0E0,0E0,0E0,0E0,0E0,0E0,0E0,0E0,0E0,0E0,0E0,0E0,0E0,0E0,0E0,0E0,0E0,0E0,0E0,0E0,0E0,0E0,0E0,0E0,0E0,0E0,0E0,0E0,0E0,0E0,0E0,0E0],"parents":[2147483647,0,0,1,1,2,2,3,3,4,4,5,5,6,6,7,7,8,8,9,9,10,10,11,11,12,12,13,13,14,14,15,15,16,16,17,17,18,18,19,19,20,20,21,21,22,22,23,23,24,24,25,25,26,26,27,27,28,28,29,29,30,30,31,31,32,32,33,33,34,34,35,35,36,36,37,37,38,38,39,39,40,40,41,41,42,42,43,43,44,44,45,45,46,46,47,47,48,48,49,49,50,50,51,51,52,52,53,53,54,54,55,55,56,56,57,57,58,58,59,59,60,60,61,61,62,62,63,63,64,64,65,65,66,66,67,67,68,68,69,69,70,70,71,71,72,72,73,73,74,74,75,75,76,76,77,77,78,78,79,79,80,80,81,81,82,82,83,83,84,84,85,85,86,86,87,87,88,88,89,89,90,90,91,91,92,92,93,93,94,94,95,95,96,96,97,97,98,98,99,99,100,100,101,101,102,102,103,103,104,104,105,105,106,106,107,107,108,108,109,109,110,110,111,111,112,112,113,113,114,114,115,115,116,116,117,117,118,118,119,119,120,120,121,121,122,122,123,123,124,124,125,125,126,126],"right_children":[2,4,6,8,10,12,14,16,18,20,22,24,26,28,30,32,34,36,38,40,42,44,46,48,50,52,54,56,58,60,62,64,66,68,70,72,74,76,78,80,82,84,86,88,90,92,94,96,98,100,102,104,106,108,110,112,114,116,118,120,122,124,126,128,130,132,134,136,138,140,142,144,146,148,150,152,154,156,158,160,162,164,166,168,170,172,174,176,178,180,182,184,186,188,190,192,194,196,198,200,202,204,206,208,210,212,214,216,218,220,222,224,226,228,230,232,234,236,238,240,242,244,246,248,250,252,254,-1,-1,-1,-1,-1,-1,-1,-1,-1,-1,-1,-1,-1,-1,-1,-1,-1,-1,-1,-1,-1,-1,-1,-1,-1,-1,-1,-1,-1,-1,-1,-1,-1,-1,-1,-1,-1,-1,-1,-1,-1,-1,-1,-1,-1,-1,-1,-1,-1,-1,-1,-1,-1,-1,-1,-1,-1,-1,-1,-1,-1,-1,-1,-1,-1,-1,-1,-1,-1,-1,-1,-1,-1,-1,-1,-1,-1,-1,-1,-1,-1,-1,-1,-1,-1,-1,-1,-1,-1,-1,-1,-1,-1,-1,-1,-1,-1,-1,-1,-1,-1,-1,-1,-1,-1,-1,-1,-1,-1,-1,-1,-1,-1,-1,-1,-1,-1,-1,-1,-1,-1,-1,-1,-1,-1,-1,-1,-1],"split_conditions":[1.95504E3,1.013178E3,3.02674E3,4.8745453E2,1.4946555E3,2.476845E3,4.1749253E3,1.4806894E2,7.622929E2,1.2508964E3,8E0,1.9E1,1.9E1,3.3869778E3,4.9909326E3,2E0,8E0,5.149453E1,-4.5237952E-1,7E0,5.1483574E1,1E0,1.2E1,3.2E1,3.2E1,1.5E1,2E0,-3.390819E-1,3E0,2E1,2E0,3.2E1,3E0,3.1416574E2,3.353659E2,1E0,5.151514E1,5.1477882E1,3.2E1,1.2E1,3.2E1,-4.3884417E-1,5.1520325E1,9.3E1,1.7227859E3,3.2E1,1.9E1,3E0,-1.6915801E-1,3E0,5.1526745E1,4E0,1.5666899E-1,5.1560795E1,5.1473766E1,5.161361E1,-2.3985337E-2,5.1630558E1,7E0,1.5E1,8.890835E-2,5.150641E1,6.1919854E3,5.139389E1,-1.3016917E-1,7E0,7E0,2.9E1,8E0,3.2E1,1E0,5E0,-6.52095E-2,-2.7323928E-1,2E0,9.7292816E2,9.295734E2,1.4E1,6.7E1,-3.866631E-1,-1.6915801E-1,1.9E1,6.7E1,5.148018E1,2.2E1,5.1512608E1,1.3E1,-1.0296929E-1,9.4E1,1E0,3E0,9E0,6.7E1,1.5666899E-1,1.7E1,1.5E1,1.0475793E-1,5.150365E1,-1.2251979E-1,2E0,5E0,2E1,-2.0649996E-1,3.5E1,3E0,5.146707E1,1E0,5.15744E1,5.1609306E1,5.1331833E1,2.6E1,6.4E1,3.1557537E3,5.139657E1,1.7E1,-3.038192E-1,1.3E1,1.9E1,1E0,2.8E1,5.137449E1,-3.038192E-1,7.5E1,-4.279622E-1,5.144954E1,1E0,7E0,-8.148982E0,-1.2429137E1,-4.932077E0,-9.975539E0,-7.632647E0,-1.3413902E1,-1.1376998E1,-1.8464931E1,-9.149164E0,-5.94613E0,-4.518528E0,-6.9501214E0,-1.0535606E1,-7.6209435E0,-9.412955E0,-7.772126E0,-8.763163E0,-2.121867E0,-7.382419E0,-5.1820536E0,-1.0429863E1,-3.565066E0,-7.3298097E0,-4.9190392E0,6.8753257E0,1.6844704E1,-1.2811892E1,-2.7910511E0,-3.9592102E0,-6.0006347E0,-4.332441E0,1.0189167E0,-1.4450882E1,-5.5461746E-1,-3.9396768E0,-1.8132893E0,-3.2780583E0,-4.8228807E0,-3.1715345E0,3.360112E0,1.9686888E1,-4.7712607E0,-4.091537E0,-2.0890484E0,-1.3481792E0,3.837024E0,-8.382851E-1,-3.2999082E0,-1.6280873E0,1.643256E-2,1.2722573E1,2.3893885E-1,4.7024537E-2,2.02941E0,3.62137E0,1.662522E0,-3.4086287E-1,-2.4788134E0,-1.4026848E0,7.716316E0,8.195815E-1,-3.6158147E0,-2.8942885E0,-8.055633E-1,2.9064872E0,4.630992E0,2.0197623E0,-6.283702E-1,-2.0020654E0,5.0854564E0,1.0098101E1,3.3703908E-1,9.9758464E-1,3.3490713E0,-1.1782054E0,1.0899452E0,-6.880666E-1,7.344368E0,6.8640137E0,-1.5970298E0,-1.5372132E0,6.653516E0,5.679764E0,4.0716033E0,5.2063985E0,8.038848E0,3.8414896E0,-4.055775E-1,-1.0034187E0,-7.615136E0,4.350055E0,-3.3462625E0,2.2945114E1,2.4698112E0,3.9300408E0,6.7687354E0,4.098441E0,7.6169944E0,-4.219404E0,1.0256752E0,5.0206304E0,8.60367E0,4.1416564E0,6.3204803E0,7.5578446E0,1.0264948E1,-1.20936E-1,6.6888976E0,8.774865E0,6.250276E0,1.0782221E1,5.3006263E0,1.0715508E1,1.3518613E1,9.675853E0,1.36535635E1,6.692592E0,1.0740642E1,5.05224E0,1.3810946E1,1.8275524E1,1.3871785E1,-4.756451E1,1.2823318E1,3.2060602E0,1.2553218E1,-1.2650622E0,1.3489837E1],"split_indices":[10,10,10,10,10,10,10,10,10,10,0,0,0,10,10,1,0,8,9,0,6,0,0,4,4,0,4,7,3,0,1,4,3,10,10,1,8,6,4,4,4,7,8,2,10,4,0,3,9,3,6,5,9,8,8,6,9,8,3,0,7,8,10,6,7,0,0,4,4,4,1,3,7,7,1,10,10,4,5,7,9,4,5,6,4,8,4,7,2,1,3,0,2,9,5,0,7,6,7,1,3,5,7,2,3,8,1,6,8,8,4,5,10,6,2,9,2,0,1,4,6,9,5,7,6,4,3,0,0,0,0,0,0,0,0,0,0,0,0,0,0,0,0,0,0,0,0,0,0,0,0,0,0,0,0,0,0,0,0,0,0,0,0,0,0,0,0,0,0,0,0,0,0,0,0,0,0,0,0,0,0,0,0,0,0,0,0,0,0,0,0,0,0,0,0,0,0,0,0,0,0,0,0,0,0,0,0,0,0,0,0,0,0,0,0,0,0,0,0,0,0,0,0,0,0,0,0,0,0,0,0,0,0,0,0,0,0,0,0,0,0,0,0,0,0,0,0,0,0,0,0,0,0,0,0],"split_type":[0,0,0,0,0,0,0,0,0,0,0,0,0,0,0,0,0,0,0,0,0,0,0,0,0,0,0,0,0,0,0,0,0,0,0,0,0,0,0,0,0,0,0,0,0,0,0,0,0,0,0,0,0,0,0,0,0,0,0,0,0,0,0,0,0,0,0,0,0,0,0,0,0,0,0,0,0,0,0,0,0,0,0,0,0,0,0,0,0,0,0,0,0,0,0,0,0,0,0,0,0,0,0,0,0,0,0,0,0,0,0,0,0,0,0,0,0,0,0,0,0,0,0,0,0,0,0,0,0,0,0,0,0,0,0,0,0,0,0,0,0,0,0,0,0,0,0,0,0,0,0,0,0,0,0,0,0,0,0,0,0,0,0,0,0,0,0,0,0,0,0,0,0,0,0,0,0,0,0,0,0,0,0,0,0,0,0,0,0,0,0,0,0,0,0,0,0,0,0,0,0,0,0,0,0,0,0,0,0,0,0,0,0,0,0,0,0,0,0,0,0,0,0,0,0,0,0,0,0,0,0,0,0,0,0,0,0,0,0,0,0,0,0,0,0,0,0,0,0,0,0,0,0,0,0],"sum_hessian":[8.65012E5,5.23857E5,3.41155E5,2.12944E5,3.10913E5,2.19563E5,1.21592E5,6.4156E4,1.48788E5,1.62674E5,1.48239E5,1.28481E5,9.1082E4,8.7813E4,3.3779E4,1.0174E4,5.3982E4,7.099E4,7.7798E4,7.8049E4,8.4625E4,2.8959E4,1.1928E5,9.5124E4,3.3357E4,6.7297E4,2.3785E4,4.0548E4,4.7265E4,2.0228E4,1.3551E4,4.955E3,5.219E3,1.1371E4,4.2611E4,2.5292E4,4.5698E4,4.31E2,7.7367E4,1.3985E4,6.4064E4,2.5526E4,5.9099E4,5.117E3,2.3842E4,2.5657E4,9.3623E4,8.9937E4,5.187E3,3.1719E4,1.638E3,4.5797E4,2.15E4,1.432E3,2.2353E4,4.987E3,3.5561E4,2.9644E4,1.7621E4,1.6456E4,3.772E3,1.1478E4,2.073E3,4.447E3,5.08E2,1.913E3,3.306E3,4.254E3,7.117E3,1.8578E4,2.4033E4,1.3938E4,1.1354E4,1.4426E4,3.1272E4,3.92E2,3.9E1,6.746E4,9.907E3,4.656E3,9.329E3,5.6703E4,7.361E3,1.33E2,2.5393E4,2.1224E4,3.7875E4,4.676E3,4.41E2,1.2755E4,1.1087E4,2.3417E4,2.24E3,5.481E4,3.8813E4,5.281E4,3.7127E4,2.488E3,2.699E3,1.9785E4,1.1934E4,1.319E3,3.19E2,1.401E3,4.4396E4,2.0665E4,8.35E2,5.12E2,9.2E2,6.688E3,1.5665E4,4.499E3,4.88E2,2.4922E4,1.0639E4,2.8598E4,1.046E3,1.4307E4,3.314E3,1.0257E4,6.199E3,3.174E3,5.98E2,5.373E3,6.105E3,1.497E3,5.76E2,2.91E2,4.156E3,2.57E2,2.51E2,2.79E2,1.634E3,3E2,3.006E3,3.125E3,1.129E3,1.596E3,5.521E3,1.7148E4,1.43E3,1.3779E4,1.0254E4,1.3377E4,5.61E2,7.196E3,4.158E3,1.584E3,1.2842E4,2.2229E4,9.043E3,3.53E2,3.9E1,2.4E1,1.5E1,2.9919E4,3.7541E4,6.721E3,3.186E3,2.8E1,4.628E3,3.127E3,6.202E3,3.0723E4,2.598E4,5.731E3,1.63E3,1.08E2,2.5E1,1.3129E4,1.2264E4,1.7108E4,4.116E3,1.7256E4,2.0619E4,2.545E3,2.131E3,6.7E1,3.74E2,7.736E3,5.019E3,6.4E3,4.687E3,4.949E3,1.8468E4,1.494E3,7.46E2,5.3174E4,1.636E3,5.894E3,3.2919E4,3.6186E4,1.6624E4,3.345E4,3.677E3,6.45E2,1.843E3,2.393E3,3.06E2,1.5613E4,4.172E3,5.755E3,6.179E3,2.38E2,1.081E3,3.2E1,2.87E2,1.155E3,2.46E2,2.7476E4,1.692E4,5.903E3,1.4762E4,3.55E2,4.8E2,3.86E2,1.26E2,6.95E2,2.25E2,1.5E1,6.673E3,1.2206E4,3.459E3,3.452E3,1.047E3,9.1E1,3.97E2,2.992E3,2.193E4,2.755E3,7.884E3,4.195E3,2.4403E4,2.57E2,7.89E2,1.0994E4,3.313E3,2.53E2,3.061E3,9.159E3,1.098E3,5.74E2,5.625E3,6.12E2,2.562E3,5.4E2,5.8E1,5.46E2,4.827E3,1.4E1,6.091E3,8.6E1,1.411E3,2.93E2,2.83E2],"tree_param":{"num_deleted":"0","num_feature":"11","num_nodes":"255","size_leaf_vector":"1"}},{"base_weights":[1.5040585E-3,-1.3889866E1,2.3165016E1,-2.6775417E1,-4.838497E0,1.574049E1,3.804698E1,-4.0189598E1,-2.2474436E1,-9.33526E0,9.926095E-1,1.1388479E1,2.1697E1,3.2604267E1,4.6011036E1,-6.731648E1,-3.8375935E1,-2.7584616E1,-1.9337605E1,-7.69173E0,-1.5794318E1,-8.460096E0,2.031801E0,1.050128E1,2.7472574E1,1.2814047E1,2.327712E1,3.498193E1,2.2565184E1,4.2939342E1,5.0872757E1,-5.2308266E1,-7.1921364E1,-4.599655E1,-3.5599922E1,-2.5352129E1,-3.3966263E1,-1.6928537E1,-2.6009954E1,-9.538477E0,-2.6922755E0,-1.8925362E1,-1.1813163E1,-1.0830252E1,4.8159386E1,2.614776E0,-1.5573615E1,1.1648223E1,1.18792325E-1,1.5144349E1,4.000908E1,3.8674274E1,1.1662865E1,2.6254599E1,1.6296677E1,3.1554129E1,4.0674442E1,1.7307007E1,2.5233759E1,4.5366028E1,3.4492756E1,4.9815304E1,6.6464966E1,-6.2585888E1,-3.9734753E1,-4.850609E1,-7.498279E1,-3.3856213E1,-4.8494358E1,-3.208807E1,-4.0267643E1,-3.1534048E1,-2.3733046E1,-3.7375996E1,-2.9802107E1,-2.4556387E1,-1.5296566E1,-2.917847E1,-2.209455E1,-1.0707008E1,7.999552E0,-5.2108665E0,2.6703192E1,-1.9960339E1,2.3532333E0,-1.0291322E1,-2.3379513E1,-6.202489E0,-3.1573542E1,2.4218857E1,6.683055E1,-3.6482956E0,4.599306E0,-2.9470167E1,5.2852983E0,6.2529945E0,1.4259188E1,3.133885E0,-2.3060652E1,-2.5785396E0,2.1384735E1,4.515603E1,-3.2011335E0,-1.9115595E1,4.9156612E1,-9.288309E0,1.4343104E1,1.6526161E1,3.010098E1,3.080844E1,1.380494E1,2.9584118E1,3.706045E1,4.2553135E1,2.4051834E1,1.521283E1,3.597248E1,3.0389698E1,1.806727E1,3.8285313E1,4.880912E1,2.6656612E1,4.06197E1,5.225177E1,3.8871418E1,-9.659305E1,6.7778046E1,4.313106E0,-1.2799875E1,-5.520827E0,-1.1059828E1,-1.30269575E1,-1.06371224E-1,9.559561E-1,-1.51019745E1,-9.612816E0,-6.012172E0,-9.55823E0,-1.8807539E1,-4.671382E0,-6.7432313E0,-9.125728E0,-7.408136E0,-3.2529933E0,-6.982518E0,8.197089E0,-4.801558E0,-7.7101493E0,-2.7115848E0,-5.2193637E0,-6.936355E0,-4.2882423E0,-8.177657E0,-3.4838493E0,-1.8223222E0,-6.0546174E0,-1.7084473E0,-6.326389E0,-4.1871924E0,-1.512069E0,-3.0229394E0,3.1355813E0,-2.9461354E-1,3.021107E0,-1.5917825E0,-5.891395E0,6.3077726E0,-4.455923E0,-2.8439052E0,-3.7679705E-1,4.454881E0,-2.8526757E0,-1.3638147E0,-5.9674063E0,-3.2419388E0,-2.1399185E-2,-3.8670394E0,-5.4900556E0,-1.361218E1,-1.1123798E0,1.6338911E1,1.4772534E1,3.2505414E0,-5.1573145E-1,-4.3272657E0,1.3247658E0,-7.4579924E-1,-8.186133E0,-3.215976E0,-4.921542E-1,1.2412456E1,1.0815582E0,9.465833E0,3.4479768E0,1.4436864E0,4.101615E0,-1.8443461E-1,2.1029847E0,-5.4103837E0,-3.415215E0,9.42536E-1,1.4041649E1,2.2513847E0,6.389265E0,1.3735389E1,-6.607918E0,1.3940805E-1,1.7604525E1,-9.347805E0,1.773651E1,8.114807E0,6.091539E-1,-6.5769296E0,3.0820262E0,-2.8245902E0,2.454521E0,5.8356743E0,6.7238016E0,3.7960374E0,8.469716E0,4.1271152E0,3.2376611E0,2.4962647E-1,6.2341657E0,4.1322584E0,2.335096E0,7.6013527E0,4.7495055E0,8.957996E0,5.4714017E0,5.8053654E-1,7.438904E0,2.581567E0,1.5634234E1,6.182349E0,2.7911725E0,6.906711E0,2.9175844E0,5.7755184E0,4.8881392E0,8.804658E0,6.5546265E0,1.0277213E1,2.7739148E0,7.362826E0,1.02053175E1,5.974937E0,1.0684592E1,6.6740837E0,1.7802187E1,5.967893E0,4.1230755E0,-2.6605244E1,2.1360502E1,1.2590354E1],"categories":[],"categories_nodes":[],"categories_segments":[],"categories_sizes":[],"default_left":[0,0,0,0,0,0,0,0,0,0,0,0,0,0,0,0,0,0,0,0,0,0,0,0,0,0,0,0,0,0,0,0,0,0,0,0,0,0,0,0,0,0,0,0,0,0,0,0,0,0,0,0,0,0,0,0,0,0,0,0,0,0,0,0,0,0,0,0,0,0,0,0,0,0,0,0,0,0,0,0,0,0,0,0,0,0,0,0,0,0,0,0,0,0,0,0,0,0,0,0,0,0,0,0,0,0,0,0,0,0,0,0,0,0,0,0,0,0,0,0,0,0,0,0,0,0,0,0,0,0,0,0,0,0,0,0,0,0,0,0,0,0,0,0,0,0,0,0,0,0,0,0,0,0,0,0,0,0,0,0,0,0,0,0,0,0,0,0,0,0,0,0,0,0,0,0,0,0,0,0,0,0,0,0,0,0,0,0,0,0,0,0,0,0,0,0,0,0,0,0,0,0,0,0,0,0,0,0,0,0,0,0,0,0,0,0,0,0,0,0,0,0,0,0,0,0,0,0,0,0,0,0,0,0,0,0,0,0,0,0,0,0,0,0,0,0,0,0,0,0,0,0,0,0,0],"id":6,"left_children":[1,3,5,7,9,11,13,15,17,19,21,23,25,27,29,31,33,35,37,39,41,43,45,47,49,51,53,55,57,59,61,63,65,67,69,71,73,75,77,79,81,83,85,87,89,91,93,95,97,99,101,103,105,107,109,111,113,115,117,119,121,123,125,127,129,131,133,135,137,139,141,143,145,147,149,151,153,155,157,159,161,163,165,167,169,171,173,175,177,179,181,183,185,187,189,191,193,195,197,199,201,203,205,207,209,211,213,215,217,219,221,223,225,227,229,231,233,235,237,239,241,243,245,247,249,251,253,-1,-1,-1,-1,-1,-1,-1,-1,-1,-1,-1,-1,-1,-1,-1,-1,-1,-1,-1,-1,-1,-1,-1,-1,-1,-1,-1,-1,-1,-1,-1,-1,-1,-1,-1,-1,-1,-1,-1,-1,-1,-1,-1,-1,-1,-1,-1,-1,-1,-1,-1,-1,-1,-1,-1,-1,-1,-1,-1,-1,-1,-1,-1,-1,-1,-1,-1,-1,-1,-1,-1,-1,-1,-1,-1,-1,-1,-1,-1,-1,-1,-1,-1,-1,-1,-1,-1,-1,-1,-1,-1,-1,-1,-1,-1,-1,-1,-1,-1,-1,-1,-1,-1,-1,-1,-1,-1,-1,-1,-1,-1,-1,-1,-1,-1,-1,-1,-1,-1,-1,-1,-1,-1,-1,-1,-1,-1,-1],"loss_changes":[2.7856557E8,6.3118E7,3.5859104E7,1.2881792E7,8.335228E6,5.612712E6,4.680816E6,2.664552E6,2.709824E6,1.905134E6,1.3596129E6,1.785092E6,1.282764E6,1.530968E6,6.5268E5,2.3094E5,1.073368E6,9.15364E5,1.683716E6,1.320929E6,4.53559E5,1.8402278E6,1.2798909E6,1.412027E6,1.0101695E6,4.10581E5,1.612524E6,1.01108E6,1.72029E5,5.4938E5,2.76544E5,1.0102325E5,1.82455E5,4.09708E5,6.09356E5,4.76152E5,2.35492E5,9.57942E5,3.44142E5,2.141251E6,2.857526E6,4.487835E5,2.8190425E5,1.2630028E6,2.4467712E5,1.500265E6,1.1587541E6,1.504108E6,8.2454294E5,3.6491675E5,7.211685E5,3.571342E5,7.424915E5,2.035072E6,8.387275E5,3.50222E5,6.07812E5,1.6131938E5,3.0063E5,5.07104E5,2.87131E5,4.21904E5,2.367135E5,5.3597875E4,6.700994E4,2.4168344E5,9.6804E4,1.235505E5,3.55738E5,3.01466E5,2.74936E5,5.09424E5,6.72434E5,2.55721E5,1.34826E5,6.893165E5,8.32437E5,3.46661E5,1.36744E5,1.358447E6,4.7475875E5,1.984891E6,8.2813775E5,2.58398E5,7.989416E4,1.9529362E5,8.577181E4,8.613396E5,3.5920425E5,4.1639012E5,1.08701375E5,5.587708E5,1.5454894E6,3.6749088E5,7.0339044E5,1.2087886E6,1.509989E6,7.357332E5,1.8226881E5,9.098653E4,1.2057292E6,8.979165E5,4.0268188E4,2.7343088E5,1.653405E5,4.3665878E5,3.562315E5,8.29283E5,1.524544E6,3.982735E5,5.92783E5,3.37136E5,2.04464E5,7.3571E5,1.3846562E5,1.88257E5,8.6636625E4,3.22242E5,1.279515E5,5.41897E5,5.78628E5,3.41995E5,3.74981E5,2.8572E5,1.3101785E6,4.117486E4,1.942385E5,0E0,0E0,0E0,0E0,0E0,0E0,0E0,0E0,0E0,0E0,0E0,0E0,0E0,0E0,0E0,0E0,0E0,0E0,0E0,0E0,0E0,0E0,0E0,0E0,0E0,0E0,0E0,0E0,0E0,0E0,0E0,0E0,0E0,0E0,0E0,0E0,0E0,0E0,0E0,0E0,0E0,0E0,0E0,0E0,0E0,0E0,0E0,0E0,0E0,0E0,0E0,0E0,0E0,0E0,0E0,0E0,0E0,0E0,0E0,0E0,0E0,0E0,0E0,0E0,0E0,0E0,0E0,0E0,0E0,0E0,0E0,0E0,0E0,0E0,0E0,0E0,0E0,0E0,0E0,0E0,0E0,0E0,0E0,0E0,0E0,0E0,0E0,0E0,0E0,0E0,0E0,0E0,0E0,0E0,0E0,0E0,0E0,0E0,0E0,0E0,0E0,0E0,0E0,0E0,0E0,0E0,0E0,0E0,0E0,0E0,0E0,0E0,0E0,0E0,0E0,0E0,0E0,0E0,0E0,0E0,0E0,0E0,0E0,0E0,0E0,0E0,0E0,0E0],"parents":[2147483647,0,0,1,1,2,2,3,3,4,4,5,5,6,6,7,7,8,8,9,9,10,10,11,11,12,12,13,13,14,14,15,15,16,16,17,17,18,18,19,19,20,20,21,21,22,22,23,23,24,24,25,25,26,26,27,27,28,28,29,29,30,30,31,31,32,32,33,33,34,34,35,35,36,36,37,37,38,38,39,39,40,40,41,41,42,42,43,43,44,44,45,45,46,46,47,47,48,48,49,49,50,50,51,51,52,52,53,53,54,54,55,55,56,56,57,57,58,58,59,59,60,60,61,61,62,62,63,63,64,64,65,65,66,66,67,67,68,68,69,69,70,70,71,71,72,72,73,73,74,74,75,75,76,76,77,77,78,78,79,79,80,80,81,81,82,82,83,83,84,84,85,85,86,86,87,87,88,88,89,89,90,90,91,91,92,92,93,93,94,94,95,95,96,96,97,97,98,98,99,99,100,100,101,101,102,102,103,103,104,104,105,105,106,106,107,107,108,108,109,109,110,110,111,111,112,112,113,113,114,114,115,115,116,116,117,117,118,118,119,119,120,120,121,121,122,122,123,123,124,124,125,125,126,126],"right_children":[2,4,6,8,10,12,14,16,18,20,22,24,26,28,30,32,34,36,38,40,42,44,46,48,50,52,54,56,58,60,62,64,66,68,70,72,74,76,78,80,82,84,86,88,90,92,94,96,98,100,102,104,106,108,110,112,114,116,118,120,122,124,126,128,130,132,134,136,138,140,142,144,146,148,150,152,154,156,158,160,162,164,166,168,170,172,174,176,178,180,182,184,186,188,190,192,194,196,198,200,202,204,206,208,210,212,214,216,218,220,222,224,226,228,230,232,234,236,238,240,242,244,246,248,250,252,254,-1,-1,-1,-1,-1,-1,-1,-1,-1,-1,-1,-1,-1,-1,-1,-1,-1,-1,-1,-1,-1,-1,-1,-1,-1,-1,-1,-1,-1,-1,-1,-1,-1,-1,-1,-1,-1,-1,-1,-1,-1,-1,-1,-1,-1,-1,-1,-1,-1,-1,-1,-1,-1,-1,-1,-1,-1,-1,-1,-1,-1,-1,-1,-1,-1,-1,-1,-1,-1,-1,-1,-1,-1,-1,-1,-1,-1,-1,-1,-1,-1,-1,-1,-1,-1,-1,-1,-1,-1,-1,-1,-1,-1,-1,-1,-1,-1,-1,-1,-1,-1,-1,-1,-1,-1,-1,-1,-1,-1,-1,-1,-1,-1,-1,-1,-1,-1,-1,-1,-1,-1,-1,-1,-1,-1,-1,-1,-1],"split_conditions":[2.0137493E3,1.0449208E3,3.1311833E3,4.3893262E2,1.5734294E3,2.5480046E3,3.9272952E3,6.528381E1,7.024117E2,2E1,-2.9821628E-1,3.2E1,-3.044808E-1,2E1,4.7889897E3,1E0,2.1433124E2,1.9E1,1.9E1,7.7E1,1E0,9E1,5.1629635E1,7.564771E-2,-1.307048E-1,-4.5237952E-1,-2.3985337E-2,1.5E1,5.1478596E1,2.4199951E-2,1.767171E-1,5.1512745E1,8E0,7E0,1.6E1,5.1467514E1,1E0,5.1464897E1,1E0,7.6E1,3.2E1,5E0,7E0,-3.1316915E-1,4E0,5.146707E1,5.166025E1,5.1477985E1,2.5E1,5.150365E1,-1.2251979E-1,1E0,-4.3585408E-1,5.146707E1,7E0,3.637857E3,1.045038E-1,9.3E1,5.155484E1,-2.50939E-1,9.514412E-2,6.1919854E3,1.2853101E-2,-4.108879E-1,1.4E1,6E0,5.1331833E1,1E0,1.6593844E-1,7E0,5.1490646E1,5.1369167E1,5.1464863E1,5E0,3E0,5.146108E1,2E0,5E0,1.3E1,3E0,8E1,7.7E1,5.150302E1,7.6E1,5.1573044E1,1.2912406E3,1.3316792E3,5.153579E1,5.15939E1,5.1565697E1,5.1549812E1,5.1473793E1,-8.456066E-3,1E0,-2.9783998E-2,5.1488636E1,5.1570553E1,8E0,1.7E1,-1.435072E-1,4.9E1,6.7E1,-1.2148755E-1,5.1457836E1,7E0,-4.512229E-1,5.1611744E1,-9.045168E-2,5.1575516E1,5.1507122E1,1.5666899E-1,5.158889E1,1E0,-3.587482E-1,6.6E1,9E0,5.137185E1,2.2E1,8.2E1,5.146108E1,5.137449E1,3E0,4.5E1,1.5666899E-1,-4.279622E-1,5.1516727E1,5.1478596E1,4.313106E0,-1.2799875E1,-5.520827E0,-1.1059828E1,-1.30269575E1,-1.06371224E-1,9.559561E-1,-1.51019745E1,-9.612816E0,-6.012172E0,-9.55823E0,-1.8807539E1,-4.671382E0,-6.7432313E0,-9.125728E0,-7.408136E0,-3.2529933E0,-6.982518E0,8.197089E0,-4.801558E0,-7.7101493E0,-2.7115848E0,-5.2193637E0,-6.936355E0,-4.2882423E0,-8.177657E0,-3.4838493E0,-1.8223222E0,-6.0546174E0,-1.7084473E0,-6.326389E0,-4.1871924E0,-1.512069E0,-3.0229394E0,3.1355813E0,-2.9461354E-1,3.021107E0,-1.5917825E0,-5.891395E0,6.3077726E0,-4.455923E0,-2.8439052E0,-3.7679705E-1,4.454881E0,-2.8526757E0,-1.3638147E0,-5.9674063E0,-3.2419388E0,-2.1399185E-2,-3.8670394E0,-5.4900556E0,-1.361218E1,-1.1123798E0,1.6338911E1,1.4772534E1,3.2505414E0,-5.1573145E-1,-4.3272657E0,1.3247658E0,-7.4579924E-1,-8.186133E0,-3.215976E0,-4.921542E-1,1.2412456E1,1.0815582E0,9.465833E0,3.4479768E0,1.4436864E0,4.101615E0,-1.8443461E-1,2.1029847E0,-5.4103837E0,-3.415215E0,9.42536E-1,1.4041649E1,2.2513847E0,6.389265E0,1.3735389E1,-6.607918E0,1.3940805E-1,1.7604525E1,-9.347805E0,1.773651E1,8.114807E0,6.091539E-1,-6.5769296E0,3.0820262E0,-2.8245902E0,2.454521E0,5.8356743E0,6.7238016E0,3.7960374E0,8.469716E0,4.1271152E0,3.2376611E0,2.4962647E-1,6.2341657E0,4.1322584E0,2.335096E0,7.6013527E0,4.7495055E0,8.957996E0,5.4714017E0,5.8053654E-1,7.438904E0,2.581567E0,1.5634234E1,6.182349E0,2.7911725E0,6.906711E0,2.9175844E0,5.7755184E0,4.8881392E0,8.804658E0,6.5546265E0,1.0277213E1,2.7739148E0,7.362826E0,1.02053175E1,5.974937E0,1.0684592E1,6.6740837E0,1.7802187E1,5.967893E0,4.1230755E0,-2.6605244E1,2.1360502E1,1.2590354E1],"split_indices":[10,10,10,10,10,10,10,10,10,0,7,4,7,0,10,1,10,0,0,2,1,5,8,7,9,9,9,0,6,9,7,6,0,0,0,8,1,8,1,5,4,3,3,7,4,8,8,8,4,6,7,3,9,8,0,10,9,5,8,7,9,10,9,7,4,3,8,0,7,4,8,8,6,3,3,8,1,3,5,3,5,5,6,5,6,10,10,6,6,6,6,6,7,1,7,6,6,0,5,7,5,2,7,6,0,7,6,7,6,8,9,8,4,9,5,5,6,2,5,8,6,4,2,9,7,6,6,0,0,0,0,0,0,0,0,0,0,0,0,0,0,0,0,0,0,0,0,0,0,0,0,0,0,0,0,0,0,0,0,0,0,0,0,0,0,0,0,0,0,0,0,0,0,0,0,0,0,0,0,0,0,0,0,0,0,0,0,0,0,0,0,0,0,0,0,0,0,0,0,0,0,0,0,0,0,0,0,0,0,0,0,0,0,0,0,0,0,0,0,0,0,0,0,0,0,0,0,0,0,0,0,0,0,0,0,0,0,0,0,0,0,0,0,0,0,0,0,0,0,0,0,0,0,0,0],"split_type":[0,0,0,0,0,0,0,0,0,0,0,0,0,0,0,0,0,0,0,0,0,0,0,0,0,0,0,0,0,0,0,0,0,0,0,0,0,0,0,0,0,0,0,0,0,0,0,0,0,0,0,0,0,0,0,0,0,0,0,0,0,0,0,0,0,0,0,0,0,0,0,0,0,0,0,0,0,0,0,0,0,0,0,0,0,0,0,0,0,0,0,0,0,0,0,0,0,0,0,0,0,0,0,0,0,0,0,0,0,0,0,0,0,0,0,0,0,0,0,0,0,0,0,0,0,0,0,0,0,0,0,0,0,0,0,0,0,0,0,0,0,0,0,0,0,0,0,0,0,0,0,0,0,0,0,0,0,0,0,0,0,0,0,0,0,0,0,0,0,0,0,0,0,0,0,0,0,0,0,0,0,0,0,0,0,0,0,0,0,0,0,0,0,0,0,0,0,0,0,0,0,0,0,0,0,0,0,0,0,0,0,0,0,0,0,0,0,0,0,0,0,0,0,0,0,0,0,0,0,0,0,0,0,0,0,0,0,0,0,0,0,0,0,0,0,0,0,0,0,0,0,0,0,0,0],"sum_hessian":[8.65719E5,5.41173E5,3.24546E5,2.23292E5,3.17881E5,2.16525E5,1.08021E5,5.421E4,1.69082E5,1.79475E5,1.38406E5,1.25115E5,9.141E4,6.4171E4,4.385E4,3.395E3,5.0815E4,6.4309E4,1.04773E5,1.43072E5,3.6403E4,1.3708E4,1.24698E5,1.18576E5,6.539E3,1.3806E4,7.7604E4,5.1881E4,1.229E4,2.6878E4,1.6972E4,8E2,2.595E3,1.3564E4,3.7251E4,4.7646E4,1.6663E4,7.6982E4,2.7791E4,1.04478E5,3.8594E4,2.0375E4,1.6028E4,1.3158E4,5.5E2,1.20702E5,3.996E3,1.0678E5,1.1796E4,3.298E3,3.241E3,5.87E2,1.3219E4,5.4398E4,2.3206E4,3.2386E4,1.9495E4,4.14E3,8.15E3,2.0876E4,6.002E3,1.5898E4,1.074E3,4.38E2,3.62E2,3.02E2,2.293E3,2.317E3,1.1247E4,2.1262E4,1.5989E4,9.885E3,3.7761E4,9.157E3,7.506E3,1.3565E4,6.3417E4,1.5357E4,1.2434E4,9.7952E4,6.526E3,3.5549E4,3.045E3,1.943E4,9.45E2,1.4166E4,1.862E3,1.0759E4,2.399E3,2.42E2,3.08E2,2.9043E4,9.1659E4,2.398E3,1.598E3,3.4824E4,7.1956E4,1.0439E4,1.357E3,8.59E2,2.439E3,2.896E3,3.45E2,9E1,4.97E2,1.499E3,1.172E4,1.5415E4,3.8983E4,3.399E3,1.9807E4,2.3857E4,8.529E3,1.7514E4,1.981E3,3.724E3,4.16E2,4.738E3,3.412E3,6.834E3,1.4042E4,2.636E3,3.366E3,1.3E4,2.898E3,8E0,1.066E3,7E0,4.31E2,2.05E2,1.57E2,2.24E2,7.8E1,1.5E1,2.278E3,4.86E2,1.831E3,1.1078E4,1.69E2,3.344E3,1.7918E4,6.003E3,9.986E3,1.792E3,8.093E3,1.59E2,3.7602E4,8.726E3,4.31E2,4.27E3,3.236E3,1.1394E4,2.171E3,4.7212E4,1.6205E4,1.4583E4,7.74E2,1.344E3,